{"learner":{"attributes":{"scikit_learn":"{\"_estimator_type\": \"classifier\"}"},"feature_names":[],"feature_types":[],"gradient_booster":{"model":{"gbtree_model_param":{"num_parallel_tree":"1","num_trees":"100"},"iteration_indptr":[0,1,2,3,4,5,6,7,8,9,10,11,12,13,14,15,16,17,18,19,20,21,22,23,24,25,26,27,28,29,30,31,32,33,34,35,36,37,38,39,40,41,42,43,44,45,46,47,48,49,50,51,52,53,54,55,56,57,58,59,60,61,62,63,64,65,66,67,68,69,70,71,72,73,74,75,76,77,78,79,80,81,82,83,84,85,86,87,88,89,90,91,92,93,94,95,96,97,98,99,100],"tree_info":[0,0,0,0,0,0,0,0,0,0,0,0,0,0,0,0,0,0,0,0,0,0,0,0,0,0,0,0,0,0,0,0,0,0,0,0,0,0,0,0,0,0,0,0,0,0,0,0,0,0,0,0,0,0,0,0,0,0,0,0,0,0,0,0,0,0,0,0,0,0,0,0,0,0,0,0,0,0,0,0,0,0,0,0,0,0,0,0,0,0,0,0,0,0,0,0,0,0,0,0],"trees":[{"base_weights":[2.3605798E-8,-6.113537E-1,4.651163E-1,-9.090909E-1,4.4776123E-2,9.170306E-1,-7.2164947E-1,-2.9126212E-2,-1.2844037E-1,3.9370097E-3,1.6141734E-1,-1.0447761E-1,1.354651E-9],"categories":[],"categories_nodes":[],"categories_segments":[],"categories_sizes":[],"default_left":[0,0,0,0,0,0,0,0,0,0,0,0,0],"id":0,"left_children":[1,3,5,7,-1,9,11,-1,-1,-1,-1,-1,-1],"loss_changes":[6.028232E0,3.2955508E0,7.1190243E0,1.3603568E0,0E0,5.5410385E0,9.0475464E-1,0E0,0E0,0E0,0E0,0E0,0E0],"parents":[2147483647,0,0,1,1,2,2,3,3,5,5,6,6],"right_children":[2,4,6,8,-1,10,12,-1,-1,-1,-1,-1,-1],"split_conditions":[3.9261413E-1,7.56789E-1,7.2645444E-1,1.919614E-1,4.4776123E-2,2.8376168E-1,8.2466E-1,-2.9126212E-2,-1.2844037E-1,3.9370097E-3,1.6141734E-1,-1.0447761E-1,1.354651E-9],"split_indices":[3,6,6,3,0,6,3,0,0,0,0,0,0],"split_type":[0,0,0,0,0,0,0,0,0,0,0,0,0],"sum_hessian":[1.92E1,8.16E0,1.1040001E1,6.4800005E0,1.6800001E0,8.16E0,2.88E0,3.1200001E0,3.3600001E0,4.08E0,4.08E0,1.6800001E0,1.2E0],"tree_param":{"num_deleted":"0","num_feature":"11","num_nodes":"13","size_leaf_vector":"1"}},{"base_weights":[-3.464196E-3,-5.69631E-1,4.202251E-1,-8.534165E-1,4.1734498E-2,8.323158E-1,-6.837953E-1,-1.3469869E-2,-1.1181804E-1,3.6184068E-3,1.4520128E-1,-1.01622485E-1,3.4067642E-3],"categories":[],"categories_nodes":[],"categories_segments":[],"categories_sizes":[],"default_left":[0,0,0,0,0,0,0,0,0,0,0,0,0],"id":1,"left_children":[1,3,5,7,-1,9,11,-1,-1,-1,-1,-1,-1],"loss_changes":[5.0774975E0,2.8930814E0,6.0793505E0,1.2505322E0,0E0,4.5211782E0,9.512292E-1,0E0,0E0,0E0,0E0,0E0,0E0],"parents":[2147483647,0,0,1,1,2,2,3,3,5,5,6,6],"right_children":[2,4,6,8,-1,10,12,-1,-1,-1,-1,-1,-1],"split_conditions":[3.9261413E-1,7.56789E-1,7.2645444E-1,2.028141E-1,4.1734498E-2,2.8376168E-1,9.4698143E-1,-1.3469869E-2,-1.1181804E-1,3.6184068E-3,1.4520128E-1,-1.01622485E-1,3.4067642E-3],"split_indices":[3,6,6,0,0,6,6,0,0,0,0,0,0],"split_type":[0,0,0,0,0,0,0,0,0,0,0,0,0],"sum_hessian":[1.9169035E1,8.0575075E0,1.11115265E1,6.363213E0,1.6942945E0,8.270539E0,2.840987E0,2.1192179E0,4.2439957E0,4.0831985E0,4.1873407E0,1.6577067E0,1.1832801E0],"tree_param":{"num_deleted":"0","num_feature":"11","num_nodes":"13","size_leaf_vector":"1"}},{"base_weights":[-5.4433066E-3,-9.893588E-2,2.1527636E-1,-3.1867106E-2,1.3147551E-1,-2.6674096E-2,1.143344E-1],"categories":[],"categories_nodes":[],"categories_segments":[],"categories_sizes":[],"default_left":[0,0,0,0,0,0,0],"id":2,"left_children":[1,-1,3,5,-1,-1,-1],"loss_changes":[4.5705385E0,0E0,4.7183685E0,4.45306E0,0E0,0E0,0E0],"parents":[2147483647,0,0,2,2,3,3],"right_children":[2,-1,4,6,-1,-1,-1],"split_conditions":[2.3228663E-1,-9.893588E-2,8.0330807E-1,7.9481196E-1,1.3147551E-1,-2.6674096E-2,1.143344E-1],"split_indices":[2,0,10,7,0,0,0],"split_type":[0,0,0,0,0,0,0],"sum_hessian":[1.9065216E1,2.8551626E0,1.6210054E1,1.4027855E1,2.1821988E0,1.2335542E1,1.6923137E0],"tree_param":{"num_deleted":"0","num_feature":"11","num_nodes":"7","size_leaf_vector":"1"}},{"base_weights":[7.0094946E-4,-5.1460844E-1,3.786505E-1,-9.246629E-1,1.3936299E-1,7.5427836E-1,-6.450259E-1,5.447184E-3,-1.1963818E-1,8.774378E-2,-4.3294992E-2,2.6130213E-3,1.3179521E-1,4.031776E-3,-9.6897244E-2],"categories":[],"categories_nodes":[],"categories_segments":[],"categories_sizes":[],"default_left":[0,0,0,0,0,0,0,0,0,0,0,0,0,0,0],"id":3,"left_children":[1,3,5,7,9,11,13,-1,-1,-1,-1,-1,-1,-1,-1],"loss_changes":[4.089163E0,2.511279E0,5.143521E0,1.5527501E0,2.1932106E0,3.7912536E0,8.805337E-1,0E0,0E0,0E0,0E0,0E0,0E0,0E0,0E0],"parents":[2147483647,0,0,1,1,2,2,3,3,4,4,5,5,6,6],"right_children":[2,4,6,8,10,12,14,-1,-1,-1,-1,-1,-1,-1,-1],"split_conditions":[3.9261413E-1,4.70066E-1,7.2645444E-1,1.2412652E-1,3.6916977E-1,2.8376168E-1,3.9507505E-1,5.447184E-3,-1.1963818E-1,8.774378E-2,-4.3294992E-2,2.6130213E-3,1.3179521E-1,4.031776E-3,-9.6897244E-2],"split_indices":[3,6,6,0,7,6,5,0,0,0,0,0,0,0,0],"split_type":[0,0,0,0,0,0,0,0,0,0,0,0,0,0,0],"sum_hessian":[1.8995314E1,7.8841767E0,1.1111137E1,4.5913687E0,3.2928085E0,8.320997E0,2.7901402E0,1.1710474E0,3.4203212E0,1.2052858E0,2.0875227E0,4.087353E0,4.2336445E0,1.1765546E0,1.6135856E0],"tree_param":{"num_deleted":"0","num_feature":"11","num_nodes":"15","size_leaf_vector":"1"}},{"base_weights":[-1.3862109E-3,-9.295561E-2,2.0267159E-1,-3.735495E-1,5.941315E-1,-8.518217E-2,3.0949766E-2,1.7164705E-2,1.506683E-1],"categories":[],"categories_nodes":[],"categories_segments":[],"categories_sizes":[],"default_left":[0,0,0,0,0,0,0,0,0],"id":4,"left_children":[1,-1,3,5,7,-1,-1,-1,-1],"loss_changes":[3.9432943E0,0E0,4.073089E0,2.7205021E0,3.8097863E0,0E0,0E0,0E0,0E0],"parents":[2147483647,0,0,2,2,3,3,4,4],"right_children":[2,-1,4,6,8,-1,-1,-1,-1],"split_conditions":[2.3228663E-1,-9.295561E-2,4.592298E-1,6.628209E-1,7.524596E-1,-8.518217E-2,3.0949766E-2,1.7164705E-2,1.506683E-1],"split_indices":[2,0,8,4,7,0,0,0,0],"split_type":[0,0,0,0,0,0,0,0,0],"sum_hessian":[1.8825205E1,2.752036E0,1.6073168E1,6.520653E0,9.552515E0,3.6898887E0,2.8307643E0,7.341645E0,2.2108705E0],"tree_param":{"num_deleted":"0","num_feature":"11","num_nodes":"9","size_leaf_vector":"1"}},{"base_weights":[-6.2151067E-4,-8.7777846E-2,1.8909821E-1,-3.1914588E-2,1.1511296E-1,-2.3687994E-2,9.703427E-2],"categories":[],"categories_nodes":[],"categories_segments":[],"categories_sizes":[],"default_left":[0,0,0,0,0,0,0],"id":5,"left_children":[1,-1,3,5,-1,-1,-1],"loss_changes":[3.4489586E0,0E0,3.6603081E0,3.2766783E0,0E0,0E0,0E0],"parents":[2147483647,0,0,2,2,3,3],"right_children":[2,-1,4,6,-1,-1,-1],"split_conditions":[2.3228663E-1,-8.7777846E-2,8.0330807E-1,7.9481196E-1,1.1511296E-1,-2.3687994E-2,9.703427E-2],"split_indices":[2,0,10,7,0,0,0],"split_type":[0,0,0,0,0,0,0],"sum_hessian":[1.8727745E1,2.6853747E0,1.604237E1,1.3831588E1,2.2107813E0,1.2117224E1,1.7143642E0],"tree_param":{"num_deleted":"0","num_feature":"11","num_nodes":"7","size_leaf_vector":"1"}},{"base_weights":[4.3540117E-3,9.3782715E-2,-1.6710372E-1,-1.0578624E-1,4.355808E-2,-1.6429333E-2,9.497224E-2],"categories":[],"categories_nodes":[],"categories_segments":[],"categories_sizes":[],"default_left":[0,0,0,0,0,0,0],"id":6,"left_children":[1,-1,3,-1,5,-1,-1],"loss_changes":[3.2934954E0,0E0,3.3123236E0,0E0,2.9882987E0,0E0,0E0],"parents":[2147483647,0,0,2,2,4,4],"right_children":[2,-1,4,-1,6,-1,-1],"split_conditions":[1.1758014E-1,9.3782715E-2,2.3228663E-1,-1.0578624E-1,8.195944E-1,-1.6429333E-2,9.497224E-2],"split_indices":[5,0,2,0,7,0,0],"split_type":[0,0,0,0,0,0,0],"sum_hessian":[1.859861E1,2.1924505E0,1.6406158E1,2.3687146E0,1.4037445E1,1.2084302E1,1.9531426E0],"tree_param":{"num_deleted":"0","num_feature":"11","num_nodes":"7","size_leaf_vector":"1"}},{"base_weights":[7.087375E-3,-4.514412E-1,3.3536786E-1,2.5933626E-1,-7.869773E-1,6.6672736E-1,-5.854116E-1,-4.0785838E-2,8.41243E-2,-1.8924287E-2,-1.0937162E-1,-8.765925E-4,1.1978974E-1,-9.007628E-2,5.861838E-3],"categories":[],"categories_nodes":[],"categories_segments":[],"categories_sizes":[],"default_left":[0,0,0,0,0,0,0,0,0,0,0,0,0,0,0],"id":7,"left_children":[1,3,5,7,9,11,13,-1,-1,-1,-1,-1,-1,-1,-1],"loss_changes":[3.082066E0,2.243076E0,4.027211E0,1.6995713E0,9.033196E-1,3.323349E0,8.015983E-1,0E0,0E0,0E0,0E0,0E0,0E0,0E0,0E0],"parents":[2147483647,0,0,1,1,2,2,3,3,4,4,5,5,6,6],"right_children":[2,4,6,8,10,12,14,-1,-1,-1,-1,-1,-1,-1,-1],"split_conditions":[3.9261413E-1,3.6735272E-1,7.2645444E-1,4.0422884E-1,1.8809402E-1,2.8376168E-1,8.2466E-1,-4.0785838E-2,8.41243E-2,-1.8924287E-2,-1.0937162E-1,-8.765925E-4,1.1978974E-1,-9.007628E-2,5.861838E-3],"split_indices":[3,7,6,9,3,6,3,0,0,0,0,0,0,0,0],"split_type":[0,0,0,0,0,0,0,0,0,0,0,0,0,0,0],"sum_hessian":[1.846951E1,7.5495048E0,1.0920005E1,2.493833E0,5.0556717E0,8.233087E0,2.6869185E0,1.3011166E0,1.1927164E0,2.2629218E0,2.79275E0,4.057116E0,4.1759706E0,1.5361186E0,1.1507999E0],"tree_param":{"num_deleted":"0","num_feature":"11","num_nodes":"15","size_leaf_vector":"1"}},{"base_weights":[3.438495E-3,-7.942774E-2,1.694163E-1,-3.315926E-1,5.0453603E-1,-7.877481E-2,2.9303312E-2,1.4689271E-2,1.2756094E-1],"categories":[],"categories_nodes":[],"categories_segments":[],"categories_sizes":[],"default_left":[0,0,0,0,0,0,0,0,0],"id":8,"left_children":[1,-1,3,5,7,-1,-1,-1,-1],"loss_changes":[2.6843667E0,0E0,2.9821563E0,2.3173327E0,2.6923003E0,0E0,0E0,0E0,0E0],"parents":[2147483647,0,0,2,2,3,3,4,4],"right_children":[2,-1,4,6,8,-1,-1,-1,-1],"split_conditions":[2.3228663E-1,-7.942774E-2,4.592298E-1,6.628209E-1,7.524596E-1,-7.877481E-2,2.9303312E-2,1.4689271E-2,1.2756094E-1],"split_indices":[2,0,8,4,7,0,0,0,0],"split_type":[0,0,0,0,0,0,0,0,0],"sum_hessian":[1.825788E1,2.4926E0,1.5765279E1,6.3229303E0,9.4423485E0,3.5033383E0,2.819592E0,7.2637444E0,2.1786041E0],"tree_param":{"num_deleted":"0","num_feature":"11","num_nodes":"9","size_leaf_vector":"1"}},{"base_weights":[3.5858755E-3,-4.212217E-1,3.0506006E-1,-8.1588584E-1,1.732857E-1,6.0598433E-1,-5.419087E-1,8.208132E-3,-1.0820003E-1,7.534015E-2,-3.245784E-2,-2.5789873E-3,1.1095204E-1,8.1302365E-3,-8.621843E-2],"categories":[],"categories_nodes":[],"categories_segments":[],"categories_sizes":[],"default_left":[0,0,0,0,0,0,0,0,0,0,0,0,0,0,0],"id":9,"left_children":[1,3,5,7,9,11,13,-1,-1,-1,-1,-1,-1,-1,-1],"loss_changes":[2.5745726E0,2.100123E0,3.3235447E0,1.3296394E0,1.4447578E0,2.937173E0,7.903756E-1,0E0,0E0,0E0,0E0,0E0,0E0,0E0,0E0],"parents":[2147483647,0,0,1,1,2,2,3,3,4,4,5,5,6,6],"right_children":[2,4,6,8,10,12,14,-1,-1,-1,-1,-1,-1,-1,-1],"split_conditions":[3.9261413E-1,4.70066E-1,7.2645444E-1,1.2412652E-1,3.6916977E-1,2.8376168E-1,3.9507505E-1,8.208132E-3,-1.0820003E-1,7.534015E-2,-3.245784E-2,-2.5789873E-3,1.1095204E-1,8.1302365E-3,-8.621843E-2],"split_indices":[3,6,6,0,7,6,5,0,0,0,0,0,0,0,0],"split_type":[0,0,0,0,0,0,0,0,0,0,0,0,0,0,0],"sum_hessian":[1.8099733E1,7.348188E0,1.0751546E1,4.1925726E0,3.155615E0,8.142926E0,2.6086202E0,1.1165344E0,3.0760384E0,1.220366E0,1.9352491E0,4.032381E0,4.1105447E0,1.1388085E0,1.4698116E0],"tree_param":{"num_deleted":"0","num_feature":"11","num_nodes":"15","size_leaf_vector":"1"}},{"base_weights":[1.4584569E-3,8.010151E-2,-1.5156725E-1,-9.7931586E-2,3.672082E-2,4.1282486E-2,-3.9784443E-2],"categories":[],"categories_nodes":[],"categories_segments":[],"categories_sizes":[],"default_left":[0,0,0,0,0,0,0],"id":10,"left_children":[1,-1,3,-1,5,-1,-1],"loss_changes":[2.427169E0,0E0,2.6323118E0,0E0,2.5399413E0,0E0,0E0],"parents":[2147483647,0,0,2,2,4,4],"right_children":[2,-1,4,-1,6,-1,-1],"split_conditions":[1.1758014E-1,8.010151E-2,2.3228663E-1,-9.7931586E-2,5.784689E-1,4.1282486E-2,-3.9784443E-2],"split_indices":[5,0,2,0,0,0,0],"split_type":[0,0,0,0,0,0,0],"sum_hessian":[1.78452E1,2.1864614E0,1.5658737E1,2.1232755E0,1.3535462E1,7.2826023E0,6.25286E0],"tree_param":{"num_deleted":"0","num_feature":"11","num_nodes":"7","size_leaf_vector":"1"}},{"base_weights":[1.1998028E-4,-4.0186256E-1,2.8329468E-1,2.5248572E-1,-7.206204E-1,5.573638E-1,-5.005099E-1,-3.6379304E-2,7.7254705E-2,-1.7343746E-2,-1.0110781E-1,-2.7881078E-3,1.0294433E-1,-8.2596585E-2,1.0760742E-2],"categories":[],"categories_nodes":[],"categories_segments":[],"categories_sizes":[],"default_left":[0,0,0,0,0,0,0,0,0,0,0,0,0,0,0],"id":11,"left_children":[1,3,5,7,9,11,13,-1,-1,-1,-1,-1,-1,-1,-1],"loss_changes":[2.2471764E0,1.8837758E0,2.7669702E0,1.3749925E0,7.378669E-1,2.5303004E0,7.870228E-1,0E0,0E0,0E0,0E0,0E0,0E0,0E0,0E0],"parents":[2147483647,0,0,1,1,2,2,3,3,4,4,5,5,6,6],"right_children":[2,4,6,8,10,12,14,-1,-1,-1,-1,-1,-1,-1,-1],"split_conditions":[3.9261413E-1,3.6735272E-1,7.2645444E-1,4.160347E-1,1.8809402E-1,2.8376168E-1,9.4698143E-1,-3.6379304E-2,7.7254705E-2,-1.7343746E-2,-1.0110781E-1,-2.7881078E-3,1.0294433E-1,-8.2596585E-2,1.0760742E-2],"split_indices":[3,7,6,6,3,6,6,0,0,0,0,0,0,0,0],"split_type":[0,0,0,0,0,0,0,0,0,0,0,0,0,0,0],"sum_hessian":[1.7741165E1,7.159176E0,1.0581989E1,2.4132164E0,4.7459598E0,8.054508E0,2.527481E0,1.2419599E0,1.1712563E0,2.1995065E0,2.5464532E0,4.016333E0,4.0381756E0,1.4130188E0,1.1144623E0],"tree_param":{"num_deleted":"0","num_feature":"11","num_nodes":"15","size_leaf_vector":"1"}},{"base_weights":[-2.818806E-3,-1.2204261E-1,9.435217E-2,3.325923E-1,-5.1835716E-1,5.880807E-2,-7.782853E-2,-7.553284E-2,2.6517069E-2],"categories":[],"categories_nodes":[],"categories_segments":[],"categories_sizes":[],"default_left":[0,0,0,0,0,0,0,0,0],"id":12,"left_children":[1,3,-1,5,7,-1,-1,-1,-1],"loss_changes":[2.2007089E0,3.2898374E0,0E0,2.9175928E0,1.9892035E0,0E0,0E0,0E0,0E0],"parents":[2147483647,0,0,1,1,3,3,4,4],"right_children":[2,4,-1,6,8,-1,-1,-1,-1],"split_conditions":[8.9148253E-1,4.5374915E-1,9.435217E-2,8.2728857E-1,7.932807E-1,5.880807E-2,-7.782853E-2,-7.553284E-2,2.6517069E-2],"split_indices":[7,7,0,5,5,0,0,0,0],"split_type":[0,0,0,0,0,0,0,0,0],"sum_hessian":[1.7484684E1,1.6301937E1,1.1827469E0,7.66722E0,8.634718E0,6.6161923E0,1.0510278E0,6.6572733E0,1.9774444E0],"tree_param":{"num_deleted":"0","num_feature":"11","num_nodes":"9","size_leaf_vector":"1"}},{"base_weights":[-1.5181976E-3,7.2584845E-2,-1.431734E-1,-9.2437856E-2,2.9373968E-2,3.6319174E-2,-3.6056187E-2],"categories":[],"categories_nodes":[],"categories_segments":[],"categories_sizes":[],"default_left":[0,0,0,0,0,0,0],"id":13,"left_children":[1,-1,3,-1,5,-1,-1],"loss_changes":[1.9917929E0,0E0,2.20694E0,0E0,1.981252E0,0E0,0E0],"parents":[2147483647,0,0,2,2,4,4],"right_children":[2,-1,4,-1,6,-1,-1],"split_conditions":[1.1758014E-1,7.2584845E-2,2.3228663E-1,-9.2437856E-2,5.784689E-1,3.6319174E-2,-3.6056187E-2],"split_indices":[5,0,2,0,0,0,0],"split_type":[0,0,0,0,0,0,0],"sum_hessian":[1.7322569E1,2.1514292E0,1.517114E1,1.9563872E0,1.3214753E1,7.156648E0,6.0581045E0],"tree_param":{"num_deleted":"0","num_feature":"11","num_nodes":"7","size_leaf_vector":"1"}},{"base_weights":[-2.7246305E-3,-1.6275868E-1,6.339708E-1,7.488519E-2,-3.243641E-1,9.911773E-2,-1.8091025E-2,-6.4205125E-2,1.4042592E-3],"categories":[],"categories_nodes":[],"categories_segments":[],"categories_sizes":[],"default_left":[0,0,0,0,0,0,0,0,0],"id":14,"left_children":[1,3,5,-1,7,-1,-1,-1,-1],"loss_changes":[1.9581063E0,2.5033507E0,1.3031572E0,0E0,1.4851998E0,0E0,0E0,0E0,0E0],"parents":[2147483647,0,0,1,1,2,2,4,4],"right_children":[2,4,6,-1,8,-1,-1,-1,-1],"split_conditions":[8.0330807E-1,1.2262101E-1,5.137437E-1,7.488519E-2,4.9045268E-1,9.911773E-2,-1.8091025E-2,-6.4205125E-2,1.4042592E-3],"split_indices":[10,9,1,0,8,0,0,0,0],"split_type":[0,0,0,0,0,0,0,0,0],"sum_hessian":[1.7204617E1,1.4343686E1,2.8609304E0,1.6126959E0,1.273099E1,1.8386184E0,1.022312E0,6.103712E0,6.6272783E0],"tree_param":{"num_deleted":"0","num_feature":"11","num_nodes":"9","size_leaf_vector":"1"}},{"base_weights":[2.466494E-3,-1.0938225E-1,8.8167705E-2,-5.9720874E-1,2.0295873E-1,-1.0352974E-2,-9.070995E-2,-4.9874213E-2,4.2112704E-2],"categories":[],"categories_nodes":[],"categories_segments":[],"categories_sizes":[],"default_left":[0,0,0,0,0,0,0,0,0],"id":15,"left_children":[1,3,-1,5,7,-1,-1,-1,-1],"loss_changes":[1.8730917E0,2.6988742E0,0E0,9.551537E-1,1.9032131E0,0E0,0E0,0E0,0E0],"parents":[2147483647,0,0,1,1,3,3,4,4],"right_children":[2,4,-1,6,8,-1,-1,-1,-1],"split_conditions":[8.9148253E-1,2.865386E-1,8.8167705E-2,4.860223E-1,1.7020394E-1,-1.0352974E-2,-9.070995E-2,-4.9874213E-2,4.2112704E-2],"split_indices":[7,6,0,4,0,0,0,0,0],"split_type":[0,0,0,0,0,0,0,0,0],"sum_hessian":[1.7066679E1,1.5917345E1,1.1493342E0,5.8572383E0,1.0060106E1,2.7732809E0,3.0839574E0,2.0809724E0,7.979134E0],"tree_param":{"num_deleted":"0","num_feature":"11","num_nodes":"9","size_leaf_vector":"1"}},{"base_weights":[8.222066E-4,-3.5997447E-1,2.5127932E-1,-7.3024935E-1,1.7849751E-1,5.0047135E-1,-4.6492615E-1,7.18517E-3,-9.840618E-2,6.594618E-2,-2.801576E-2,-2.5221054E-3,9.284E-2,-7.9421006E-2,1.411627E-2],"categories":[],"categories_nodes":[],"categories_segments":[],"categories_sizes":[],"default_left":[0,0,0,0,0,0,0,0,0,0,0,0,0,0,0],"id":16,"left_children":[1,3,5,7,9,11,13,-1,-1,-1,-1,-1,-1,-1,-1],"loss_changes":[1.7112082E0,1.6775905E0,2.2272303E0,1.0468185E0,1.0595317E0,1.9968755E0,7.912895E-1,0E0,0E0,0E0,0E0,0E0,0E0,0E0,0E0],"parents":[2147483647,0,0,1,1,2,2,3,3,4,4,5,5,6,6],"right_children":[2,4,6,8,10,12,14,-1,-1,-1,-1,-1,-1,-1,-1],"split_conditions":[3.9261413E-1,4.70066E-1,7.2645444E-1,1.2412652E-1,4.377843E-1,2.8376168E-1,8.2466E-1,7.18517E-3,-9.840618E-2,6.594618E-2,-2.801576E-2,-2.5221054E-3,9.284E-2,-7.9421006E-2,1.411627E-2],"split_indices":[3,6,6,0,2,6,3,0,0,0,0,0,0,0,0],"split_type":[0,0,0,0,0,0,0,0,0,0,0,0,0,0,0],"sum_hessian":[1.693582E1,6.760169E0,1.017565E1,3.794659E0,2.9655104E0,7.77254E0,2.4031103E0,1.0844566E0,2.7102025E0,1.2338399E0,1.7316705E0,3.9101486E0,3.8623912E0,1.3560125E0,1.0470977E0],"tree_param":{"num_deleted":"0","num_feature":"11","num_nodes":"15","size_leaf_vector":"1"}},{"base_weights":[-1.1351011E-3,-6.896647E-2,1.323435E-1,-3.8774304E-2,8.778336E-2,-2.0008558E-2,7.331479E-2],"categories":[],"categories_nodes":[],"categories_segments":[],"categories_sizes":[],"default_left":[0,0,0,0,0,0,0],"id":17,"left_children":[1,-1,3,5,-1,-1,-1],"loss_changes":[1.714728E0,0E0,2.0285776E0,1.8493868E0,0E0,0E0,0E0],"parents":[2147483647,0,0,2,2,3,3],"right_children":[2,-1,4,6,-1,-1,-1],"split_conditions":[2.3228663E-1,-6.896647E-2,8.0330807E-1,7.9481196E-1,8.778336E-2,-2.0008558E-2,7.331479E-2],"split_indices":[2,0,10,7,0,0,0],"split_type":[0,0,0,0,0,0,0],"sum_hessian":[1.6664692E1,2.0294127E0,1.463528E1,1.267409E1,1.9611888E0,1.1096096E1,1.5779942E0],"tree_param":{"num_deleted":"0","num_feature":"11","num_nodes":"7","size_leaf_vector":"1"}},{"base_weights":[3.0737696E-3,-6.5672025E-2,1.291182E-1,-3.1144971E-2,8.300855E-2,3.194057E-2,-3.686689E-2],"categories":[],"categories_nodes":[],"categories_segments":[],"categories_sizes":[],"default_left":[0,0,0,0,0,0,0],"id":18,"left_children":[1,-1,3,5,-1,-1,-1],"loss_changes":[1.5401999E0,0E0,1.7703974E0,1.727288E0,0E0,0E0,0E0],"parents":[2147483647,0,0,2,2,3,3],"right_children":[2,-1,4,6,-1,-1,-1],"split_conditions":[2.3228663E-1,-6.5672025E-2,8.0330807E-1,6.4785016E-1,8.300855E-2,3.194057E-2,-3.686689E-2],"split_indices":[2,0,10,2,0,0,0],"split_type":[0,0,0,0,0,0,0],"sum_hessian":[1.650056E1,1.971306E0,1.4529255E1,1.260331E1,1.9259447E0,6.2086825E0,6.394627E0],"tree_param":{"num_deleted":"0","num_feature":"11","num_nodes":"7","size_leaf_vector":"1"}},{"base_weights":[3.4000173E-3,6.515514E-2,-1.2519936E-1,-7.680645E-2,4.000868E-2,3.8731627E-2,-3.4561303E-2],"categories":[],"categories_nodes":[],"categories_segments":[],"categories_sizes":[],"default_left":[0,0,0,0,0,0,0],"id":19,"left_children":[1,-1,3,-1,5,-1,-1],"loss_changes":[1.5313082E0,0E0,1.6612295E0,0E0,1.8969018E0,0E0,0E0],"parents":[2147483647,0,0,2,2,4,4],"right_children":[2,-1,4,-1,6,-1,-1],"split_conditions":[1.1758014E-1,6.515514E-2,2.8002805E-1,-7.680645E-2,5.370791E-1,3.8731627E-2,-3.4561303E-2],"split_indices":[5,0,2,0,0,0,0],"split_type":[0,0,0,0,0,0,0],"sum_hessian":[1.6392944E1,2.040771E0,1.4352173E1,2.1882153E0,1.2163958E1,6.3976045E0,5.766353E0],"tree_param":{"num_deleted":"0","num_feature":"11","num_nodes":"7","size_leaf_vector":"1"}},{"base_weights":[2.437369E-3,-3.4191498E-1,2.3889065E-1,-6.9319826E-1,1.6337831E-1,4.7056445E-1,-4.3480292E-1,4.8364275E-3,-9.503471E-2,5.6061324E-2,-3.192695E-2,-3.4235741E-3,8.8854544E-2,-7.490049E-2,1.356252E-2],"categories":[],"categories_nodes":[],"categories_segments":[],"categories_sizes":[],"default_left":[0,0,0,0,0,0,0,0,0,0,0,0,0,0,0],"id":20,"left_children":[1,3,5,7,9,11,13,-1,-1,-1,-1,-1,-1,-1,-1],"loss_changes":[1.4880251E0,1.4343889E0,1.8947717E0,9.1958594E-1,9.1935766E-1,1.8319688E0,6.9139117E-1,0E0,0E0,0E0,0E0,0E0,0E0,0E0,0E0],"parents":[2147483647,0,0,1,1,2,2,3,3,4,4,5,5,6,6],"right_children":[2,4,6,8,10,12,14,-1,-1,-1,-1,-1,-1,-1,-1],"split_conditions":[3.9261413E-1,4.70066E-1,7.2645444E-1,8.423572E-2,6.4469254E-1,2.8376168E-1,8.2466E-1,4.8364275E-3,-9.503471E-2,5.6061324E-2,-3.192695E-2,-3.4235741E-3,8.8854544E-2,-7.490049E-2,1.356252E-2],"split_indices":[3,6,6,3,8,6,3,0,0,0,0,0,0,0,0],"split_type":[0,0,0,0,0,0,0,0,0,0,0,0,0,0,0],"sum_hessian":[1.6272032E1,6.4429703E0,9.829061E0,3.5813315E0,2.8616385E0,7.538271E0,2.2907903E0,1.1311774E0,2.450154E0,1.4811043E0,1.3805343E0,3.8303764E0,3.7078943E0,1.2752838E0,1.0155065E0],"tree_param":{"num_deleted":"0","num_feature":"11","num_nodes":"15","size_leaf_vector":"1"}},{"base_weights":[-4.8299972E-4,-1.02638625E-1,7.921809E-2,2.9625785E-1,-4.6310464E-1,5.5201985E-2,-3.5432108E-2,-6.736725E-2,1.6659321E-2],"categories":[],"categories_nodes":[],"categories_segments":[],"categories_sizes":[],"default_left":[0,0,0,0,0,0,0,0,0],"id":21,"left_children":[1,3,-1,5,7,-1,-1,-1,-1],"loss_changes":[1.4600867E0,2.4333024E0,0E0,1.5583684E0,1.2762091E0,0E0,0E0,0E0,0E0],"parents":[2147483647,0,0,1,1,3,3,4,4],"right_children":[2,4,-1,6,8,-1,-1,-1,-1],"split_conditions":[8.9148253E-1,4.5374915E-1,7.921809E-2,6.378428E-1,6.918395E-1,5.5201985E-2,-3.5432108E-2,-6.736725E-2,1.6659321E-2],"split_indices":[7,7,0,5,10,0,0,0,0],"split_type":[0,0,0,0,0,0,0,0,0],"sum_hessian":[1.6027193E1,1.4968609E1,1.0585852E0,7.1900873E0,7.778521E0,5.2698474E0,1.9202399E0,5.776915E0,2.001606E0],"tree_param":{"num_deleted":"0","num_feature":"11","num_nodes":"9","size_leaf_vector":"1"}},{"base_weights":[2.2016875E-3,6.265718E-2,-1.1980705E-1,-5.0877243E-1,1.8657935E-1,-7.80998E-2,5.225111E-2,-5.4006215E-2,3.82361E-2],"categories":[],"categories_nodes":[],"categories_segments":[],"categories_sizes":[],"default_left":[0,0,0,0,0,0,0,0,0],"id":22,"left_children":[1,-1,3,5,7,-1,-1,-1,-1],"loss_changes":[1.3587939E0,0E0,1.8749446E0,2.3310435E0,1.499208E0,0E0,0E0,0E0,0E0],"parents":[2147483647,0,0,2,2,3,3,4,4],"right_children":[2,-1,4,6,8,-1,-1,-1,-1],"split_conditions":[1.2262101E-1,6.265718E-2,3.3562413E-1,8.213505E-1,2.5587142E-1,-7.80998E-2,5.225111E-2,-5.4006215E-2,3.82361E-2],"split_indices":[9,0,6,9,4,0,0,0,0],"split_type":[0,0,0,0,0,0,0,0,0],"sum_hessian":[1.5851531E1,1.9151967E0,1.3936334E1,5.8495817E0,8.086752E0,4.819961E0,1.0296211E0,1.3431551E0,6.743597E0],"tree_param":{"num_deleted":"0","num_feature":"11","num_nodes":"9","size_leaf_vector":"1"}},{"base_weights":[2.8895661E-3,-9.439335E-2,7.5689614E-2,2.6202038E-1,-4.208061E-1,5.016278E-2,-3.4209497E-2,-6.2318444E-2,2.190574E-2],"categories":[],"categories_nodes":[],"categories_segments":[],"categories_sizes":[],"default_left":[0,0,0,0,0,0,0,0,0],"id":23,"left_children":[1,3,-1,5,7,-1,-1,-1,-1],"loss_changes":[1.2967008E0,1.9349091E0,0E0,1.346072E0,1.2463193E0,0E0,0E0,0E0,0E0],"parents":[2147483647,0,0,1,1,3,3,4,4],"right_children":[2,4,-1,6,8,-1,-1,-1,-1],"split_conditions":[8.9148253E-1,4.5374915E-1,7.5689614E-2,6.378428E-1,7.932807E-1,5.016278E-2,-3.4209497E-2,-6.2318444E-2,2.190574E-2],"split_indices":[7,7,0,5,5,0,0,0,0],"split_type":[0,0,0,0,0,0,0,0,0],"sum_hessian":[1.5703778E1,1.4684036E1,1.0197427E0,7.1137385E0,7.5702972E0,5.2149906E0,1.898748E0,5.7710695E0,1.7992278E0],"tree_param":{"num_deleted":"0","num_feature":"11","num_nodes":"9","size_leaf_vector":"1"}},{"base_weights":[5.527466E-3,5.9509404E-2,-1.1327944E-1,-7.7980354E-2,2.3504851E-2,-6.869023E-2,1.8573713E-2],"categories":[],"categories_nodes":[],"categories_segments":[],"categories_sizes":[],"default_left":[0,0,0,0,0,0,0],"id":24,"left_children":[1,-1,3,-1,5,-1,-1],"loss_changes":[1.2243366E0,0E0,1.3482144E0,0E0,1.6343527E0,0E0,0E0],"parents":[2147483647,0,0,2,2,4,4],"right_children":[2,-1,4,-1,6,-1,-1],"split_conditions":[1.1758014E-1,5.9509404E-2,2.3228663E-1,-7.7980354E-2,2.4551357E-1,-6.869023E-2,1.8573713E-2],"split_indices":[5,0,2,0,5,0,0],"split_type":[0,0,0,0,0,0,0],"sum_hessian":[1.5516976E1,1.9301072E0,1.3586869E1,1.5130565E0,1.20738125E1,1.6433958E0,1.0430417E1],"tree_param":{"num_deleted":"0","num_feature":"11","num_nodes":"7","size_leaf_vector":"1"}},{"base_weights":[6.1646546E-4,-3.1000775E-1,2.2176743E-1,2.5085402E-1,-7.3816824E-1,-4.8704334E-2,8.9159094E-2,-2.036794E-2,5.5493075E-2,-9.216142E-2,-7.2464743E-3,4.1164912E-2,-4.7264095E-2],"categories":[],"categories_nodes":[],"categories_segments":[],"categories_sizes":[],"default_left":[0,0,0,0,0,0,0,0,0,0,0,0,0],"id":25,"left_children":[1,3,5,7,9,11,-1,-1,-1,-1,-1,-1,-1],"loss_changes":[1.196745E0,1.9251766E0,1.8867314E0,6.4973307E-1,4.659853E-1,1.7941171E0,0E0,0E0,0E0,0E0,0E0,0E0,0E0],"parents":[2147483647,0,0,1,1,2,2,3,3,4,4,5,5],"right_children":[2,4,6,8,10,12,-1,-1,-1,-1,-1,-1,-1],"split_conditions":[4.592298E-1,4.5374915E-1,7.524596E-1,5.8038837E-1,5.3747594E-1,7.409803E-1,8.9159094E-2,-2.036794E-2,5.5493075E-2,-9.216142E-2,-7.2464743E-3,4.1164912E-2,-4.7264095E-2],"split_indices":[8,7,7,4,10,8,0,0,0,0,0,0,0],"split_type":[0,0,0,0,0,0,0,0,0,0,0,0,0],"sum_hessian":[1.542038E1,6.245826E0,9.174554E0,2.8831732E0,3.3626525E0,7.1960917E0,1.9784621E0,1.2880175E0,1.5951557E0,2.3348293E0,1.0278232E0,3.4637666E0,3.732325E0],"tree_param":{"num_deleted":"0","num_feature":"11","num_nodes":"13","size_leaf_vector":"1"}},{"base_weights":[1.4510296E-3,-3.0962387E-1,2.1266648E-1,8.957531E-2,-7.594334E-2,4.3145773E-1,-4.1403297E-1,-4.255315E-2,4.991629E-2,-3.1763166E-3,8.1695884E-2,-6.9994316E-2,9.16707E-3],"categories":[],"categories_nodes":[],"categories_segments":[],"categories_sizes":[],"default_left":[0,0,0,0,0,0,0,0,0,0,0,0,0],"id":26,"left_children":[1,3,5,7,-1,9,11,-1,-1,-1,-1,-1,-1],"loss_changes":[1.1321651E0,1.3196378E0,1.5852972E0,1.1802645E0,0E0,1.471283E0,5.2178377E-1,0E0,0E0,0E0,0E0,0E0,0E0],"parents":[2147483647,0,0,1,1,2,2,3,3,5,5,6,6],"right_children":[2,4,6,8,-1,10,12,-1,-1,-1,-1,-1,-1],"split_conditions":[3.9261413E-1,6.4785016E-1,7.2645444E-1,4.4363663E-1,-7.594334E-2,2.8376168E-1,9.4698143E-1,-4.255315E-2,4.991629E-2,-3.1763166E-3,8.1695884E-2,-6.9994316E-2,9.16707E-3],"split_indices":[3,2,6,6,0,6,6,0,0,0,0,0,0],"split_type":[0,0,0,0,0,0,0,0,0,0,0,0,0],"sum_hessian":[1.522917E1,5.9702954E0,9.258875E0,3.5873957E0,2.3828998E0,7.093837E0,2.1650374E0,1.5717721E0,2.0156236E0,3.6389062E0,3.4549308E0,1.1377112E0,1.0273262E0],"tree_param":{"num_deleted":"0","num_feature":"11","num_nodes":"13","size_leaf_vector":"1"}},{"base_weights":[-1.963242E-3,-5.8337826E-2,1.0549537E-1,-3.352263E-2,7.213097E-2,2.9832361E-2,-3.598666E-2],"categories":[],"categories_nodes":[],"categories_segments":[],"categories_sizes":[],"default_left":[0,0,0,0,0,0,0],"id":27,"left_children":[1,-1,3,5,-1,-1,-1],"loss_changes":[1.0603248E0,0E0,1.2517548E0,1.4777327E0,0E0,0E0,0E0],"parents":[2147483647,0,0,2,2,3,3],"right_children":[2,-1,4,6,-1,-1,-1],"split_conditions":[2.3228663E-1,-5.8337826E-2,8.0330807E-1,6.4785016E-1,7.213097E-2,2.9832361E-2,-3.598666E-2],"split_indices":[2,0,10,2,0,0,0],"split_type":[0,0,0,0,0,0,0],"sum_hessian":[1.4986114E1,1.6468439E0,1.333927E1,1.1653985E1,1.685284E0,5.8208523E0,5.833133E0],"tree_param":{"num_deleted":"0","num_feature":"11","num_nodes":"7","size_leaf_vector":"1"}},{"base_weights":[-1.3614753E-3,5.578574E-2,-1.1485413E-1,-6.920396E-2,2.7355658E-2,-6.5768965E-2,1.888431E-2],"categories":[],"categories_nodes":[],"categories_segments":[],"categories_sizes":[],"default_left":[0,0,0,0,0,0,0],"id":28,"left_children":[1,-1,3,-1,5,-1,-1],"loss_changes":[1.0721661E0,0E0,1.1707988E0,0E0,1.4761766E0,0E0,0E0],"parents":[2147483647,0,0,2,2,4,4],"right_children":[2,-1,4,-1,6,-1,-1],"split_conditions":[1.1758014E-1,5.578574E-2,2.8002805E-1,-6.920396E-2,2.4551357E-1,-6.5768965E-2,1.888431E-2],"split_indices":[5,0,2,0,5,0,0],"split_type":[0,0,0,0,0,0,0],"sum_hessian":[1.4883691E1,1.8504585E0,1.3033233E1,1.8121103E0,1.1221123E1,1.5544208E0,9.666701E0],"tree_param":{"num_deleted":"0","num_feature":"11","num_nodes":"7","size_leaf_vector":"1"}},{"base_weights":[-5.238392E-3,5.415013E-2,-1.1497092E-1,-4.4553813E-1,1.467927E-1,1.1166959E-2,-8.313071E-2,-5.0204583E-2,3.2093707E-2],"categories":[],"categories_nodes":[],"categories_segments":[],"categories_sizes":[],"default_left":[0,0,0,0,0,0,0,0,0],"id":29,"left_children":[1,-1,3,5,7,-1,-1,-1,-1],"loss_changes":[1.0093399E0,0E0,1.2744194E0,1.4733524E0,1.127174E0,0E0,0E0,0E0,0E0],"parents":[2147483647,0,0,2,2,3,3,4,4],"right_children":[2,-1,4,6,8,-1,-1,-1,-1],"split_conditions":[1.2262101E-1,5.415013E-2,3.3562413E-1,4.860223E-1,2.5587142E-1,1.1166959E-2,-8.313071E-2,-5.0204583E-2,3.2093707E-2],"split_indices":[9,0,6,4,4,0,0,0,0],"split_type":[0,0,0,0,0,0,0,0,0],"sum_hessian":[1.4786002E1,1.8138417E0,1.297216E1,5.4224176E0,7.5497427E0,2.5089695E0,2.9134479E0,1.1991059E0,6.3506365E0],"tree_param":{"num_deleted":"0","num_feature":"11","num_nodes":"9","size_leaf_vector":"1"}},{"base_weights":[-7.362958E-3,-3.039286E-1,1.940744E-1,6.932083E-2,-7.178779E-2,4.07923E-1,-4.0853176E-1,4.7774184E-2,-4.309882E-2,-2.7154356E-3,7.740822E-2,-6.7115605E-2,6.300905E-3],"categories":[],"categories_nodes":[],"categories_segments":[],"categories_sizes":[],"default_left":[0,0,0,0,0,0,0,0,0,0,0,0,0],"id":30,"left_children":[1,3,5,7,-1,9,11,-1,-1,-1,-1,-1,-1],"loss_changes":[9.939069E-1,1.0880433E0,1.4462972E0,1.1143104E0,0E0,1.2683173E0,4.2625302E-1,0E0,0E0,0E0,0E0,0E0,0E0],"parents":[2147483647,0,0,1,1,2,2,3,3,5,5,6,6],"right_children":[2,4,6,8,-1,10,12,-1,-1,-1,-1,-1,-1],"split_conditions":[3.9261413E-1,6.4785016E-1,7.2645444E-1,2.4013585E-1,-7.178779E-2,2.8376168E-1,9.4698143E-1,4.7774184E-2,-4.309882E-2,-2.7154356E-3,7.740822E-2,-6.7115605E-2,6.300905E-3],"split_indices":[3,2,6,3,0,6,6,0,0,0,0,0,0],"split_type":[0,0,0,0,0,0,0,0,0,0,0,0,0],"sum_hessian":[1.4650008E1,5.719981E0,8.930027E0,3.445649E0,2.2743323E0,6.8294935E0,2.100534E0,1.921865E0,1.5237839E0,3.5441298E0,3.2853637E0,1.0772402E0,1.0232937E0],"tree_param":{"num_deleted":"0","num_feature":"11","num_nodes":"13","size_leaf_vector":"1"}},{"base_weights":[-1.0255046E-2,-2.9660335E-1,1.902576E-1,2.0513475E-1,-6.876445E-1,6.7232686E-1,-1.3789241E-1,-1.8910296E-2,5.178347E-2,-8.227697E-2,-1.7482331E-2,1.0535401E-1,-8.730517E-3,-5.5196214E-2,2.8865809E-2],"categories":[],"categories_nodes":[],"categories_segments":[],"categories_sizes":[],"default_left":[0,0,0,0,0,0,0,0,0,0,0,0,0,0,0],"id":31,"left_children":[1,3,5,7,9,11,13,-1,-1,-1,-1,-1,-1,-1,-1],"loss_changes":[9.432402E-1,1.4657767E0,1.6261096E0,5.574523E-1,1.3502383E-1,1.2781446E0,1.3245398E0,0E0,0E0,0E0,0E0,0E0,0E0,0E0,0E0],"parents":[2147483647,0,0,1,1,2,2,3,3,4,4,5,5,6,6],"right_children":[2,4,6,8,10,12,14,-1,-1,-1,-1,-1,-1,-1,-1],"split_conditions":[4.592298E-1,4.5374915E-1,5.124221E-1,3.763722E-1,7.822851E-1,6.590472E-1,5.415256E-1,-1.8910296E-2,5.178347E-2,-8.227697E-2,-1.7482331E-2,1.0535401E-1,-8.730517E-3,-5.5196214E-2,2.8865809E-2],"split_indices":[8,7,10,3,5,9,5,0,0,0,0,0,0,0,0],"split_type":[0,0,0,0,0,0,0,0,0,0,0,0,0,0,0],"sum_hessian":[1.444521E1,5.751861E0,8.693349E0,2.7275732E0,3.024288E0,3.096132E0,5.597217E0,1.3813225E0,1.3462505E0,1.9152362E0,1.1090516E0,1.803937E0,1.2921951E0,2.6909704E0,2.906247E0],"tree_param":{"num_deleted":"0","num_feature":"11","num_nodes":"15","size_leaf_vector":"1"}},{"base_weights":[-9.271282E-3,5.0314244E-2,-1.12950996E-1,1.5714385E-1,-3.9420393E-1,-1.9073224E-2,5.7891846E-2,-7.8248255E-2,3.5638824E-2],"categories":[],"categories_nodes":[],"categories_segments":[],"categories_sizes":[],"default_left":[0,0,0,0,0,0,0,0,0],"id":32,"left_children":[1,-1,3,5,7,-1,-1,-1,-1],"loss_changes":[8.670623E-1,0E0,1.0875523E0,1.2258412E0,2.2894812E0,0E0,0E0,0E0,0E0],"parents":[2147483647,0,0,2,2,3,3,4,4],"right_children":[2,-1,4,6,8,-1,-1,-1,-1],"split_conditions":[1.1758014E-1,5.0314244E-2,5.370791E-1,2.4481618E-1,8.3746594E-1,-1.9073224E-2,5.7891846E-2,-7.8248255E-2,3.5638824E-2],"split_indices":[5,0,0,0,0,0,0,0,0],"split_type":[0,0,0,0,0,0,0,0,0],"sum_hessian":[1.42508745E1,1.7498384E0,1.2501037E1,6.602116E0,5.89892E0,3.9182026E0,2.6839137E0,3.859782E0,2.039138E0],"tree_param":{"num_deleted":"0","num_feature":"11","num_nodes":"9","size_leaf_vector":"1"}},{"base_weights":[-5.5986126E-3,-5.3784963E-2,9.08526E-2,-4.2154264E-2,6.746973E-2,2.7362654E-2,-3.4465365E-2],"categories":[],"categories_nodes":[],"categories_segments":[],"categories_sizes":[],"default_left":[0,0,0,0,0,0,0],"id":33,"left_children":[1,-1,3,5,-1,-1,-1],"loss_changes":[8.2304823E-1,0E0,1.0863057E0,1.2440444E0,0E0,0E0,0E0],"parents":[2147483647,0,0,2,2,3,3],"right_children":[2,-1,4,6,-1,-1,-1],"split_conditions":[2.3228663E-1,-5.3784963E-2,8.0330807E-1,5.784689E-1,6.746973E-2,2.7362654E-2,-3.4465365E-2],"split_indices":[2,0,10,0,0,0,0],"split_type":[0,0,0,0,0,0,0],"sum_hessian":[1.4080632E1,1.458076E0,1.2622556E1,1.103618E1,1.5863762E0,5.446253E0,5.5899267E0],"tree_param":{"num_deleted":"0","num_feature":"11","num_nodes":"7","size_leaf_vector":"1"}},{"base_weights":[-4.6809004E-3,-2.8033346E-1,1.8384425E-1,6.705748E-2,-6.696184E-2,3.7638623E-1,-3.6652423E-2,4.3169204E-2,-3.9356347E-2,-3.036321E-3,7.2428755E-2],"categories":[],"categories_nodes":[],"categories_segments":[],"categories_sizes":[],"default_left":[0,0,0,0,0,0,0,0,0,0,0],"id":34,"left_children":[1,3,5,7,-1,9,-1,-1,-1,-1,-1],"loss_changes":[8.2963586E-1,9.2084736E-1,1.1441891E0,8.9745563E-1,0E0,1.087259E0,0E0,0E0,0E0,0E0,0E0],"parents":[2147483647,0,0,1,1,2,2,3,3,5,5],"right_children":[2,4,6,8,-1,10,-1,-1,-1,-1,-1],"split_conditions":[3.9261413E-1,6.4785016E-1,7.2645444E-1,2.4013585E-1,-6.696184E-2,2.8376168E-1,-3.6652423E-2,4.3169204E-2,-3.9356347E-2,-3.036321E-3,7.2428755E-2],"split_indices":[3,2,6,3,0,6,0,0,0,0,0],"split_type":[0,0,0,0,0,0,0,0,0,0,0],"sum_hessian":[1.3972801E1,5.4772477E0,8.495554E0,3.3317738E0,2.145474E0,6.52793E0,1.967624E0,1.8947027E0,1.4370711E0,3.4302142E0,3.0977159E0],"tree_param":{"num_deleted":"0","num_feature":"11","num_nodes":"11","size_leaf_vector":"1"}},{"base_weights":[-6.3499454E-3,-2.812391E-1,1.8437357E-1,1.9525418E-1,-6.5471476E-1,-5.9388775E-2,7.8727E-2,-2.1714741E-2,4.771347E-2,-7.889816E-2,-1.5706355E-2,2.0953847E-2,-6.484976E-2],"categories":[],"categories_nodes":[],"categories_segments":[],"categories_sizes":[],"default_left":[0,0,0,0,0,0,0,0,0,0,0,0,0],"id":35,"left_children":[1,3,5,7,9,11,-1,-1,-1,-1,-1,-1,-1],"loss_changes":[8.2695013E-1,1.2759912E0,1.4182569E0,5.227059E-1,1.3310277E-1,1.3360138E0,0E0,0E0,0E0,0E0,0E0,0E0,0E0],"parents":[2147483647,0,0,1,1,2,2,3,3,4,4,5,5],"right_children":[2,4,6,8,10,12,-1,-1,-1,-1,-1,-1,-1],"split_conditions":[4.592298E-1,4.5374915E-1,7.524596E-1,5.8038837E-1,7.822851E-1,6.5619993E-1,7.8727E-2,-2.1714741E-2,4.771347E-2,-7.889816E-2,-1.5706355E-2,2.0953847E-2,-6.484976E-2],"split_indices":[8,7,7,4,5,4,0,0,0,0,0,0,0],"split_type":[0,0,0,0,0,0,0,0,0,0,0,0,0],"sum_hessian":[1.3784077E1,5.4518104E0,8.332266E0,2.605201E0,2.8466094E0,6.5752597E0,1.7570068E0,1.1509566E0,1.4542445E0,1.78075E0,1.0658593E0,4.9568005E0,1.6184592E0],"tree_param":{"num_deleted":"0","num_feature":"11","num_nodes":"13","size_leaf_vector":"1"}},{"base_weights":[-8.296187E-3,4.8086464E-2,-1.0880178E-1,-6.411337E-2,2.2330908E-2,-5.9729863E-2,1.6687786E-2],"categories":[],"categories_nodes":[],"categories_segments":[],"categories_sizes":[],"default_left":[0,0,0,0,0,0,0],"id":36,"left_children":[1,-1,3,-1,5,-1,-1],"loss_changes":[7.7000666E-1,0E0,9.165849E-1,0E0,1.1150817E0,0E0,0E0],"parents":[2147483647,0,0,2,2,4,4],"right_children":[2,-1,4,-1,6,-1,-1],"split_conditions":[1.1758014E-1,4.8086464E-2,2.8002805E-1,-6.411337E-2,2.4551357E-1,-5.9729863E-2,1.6687786E-2],"split_indices":[5,0,2,0,5,0,0],"split_type":[0,0,0,0,0,0,0],"sum_hessian":[1.359801E1,1.6726694E0,1.1925341E1,1.5883301E0,1.033701E1,1.3628156E0,8.974195E0],"tree_param":{"num_deleted":"0","num_feature":"11","num_nodes":"7","size_leaf_vector":"1"}},{"base_weights":[-1.1745972E-2,-1.1925881E-1,4.2296043E-1,4.7971945E-2,-2.4035162E-1,1.0522751E-3,6.2427014E-2,8.547622E-3,-4.715934E-2],"categories":[],"categories_nodes":[],"categories_segments":[],"categories_sizes":[],"default_left":[0,0,0,0,0,0,0,0,0],"id":37,"left_children":[1,3,5,-1,7,-1,-1,-1,-1],"loss_changes":[7.2828084E-1,1.0152552E0,2.5046194E-1,0E0,8.6815E-1,0E0,0E0,0E0,0E0],"parents":[2147483647,0,0,1,1,2,2,4,4],"right_children":[2,4,6,-1,8,-1,-1,-1,-1],"split_conditions":[8.0330807E-1,1.2262101E-1,4.179853E-1,4.7971945E-2,4.7776034E-1,1.0522751E-3,6.2427014E-2,8.547622E-3,-4.715934E-2],"split_indices":[10,9,0,0,0,0,0,0,0],"split_type":[0,0,0,0,0,0,0,0,0],"sum_hessian":[1.3503413E1,1.1407687E1,2.0957255E0,1.420363E0,9.987325E0,1.0325458E0,1.0631797E0,4.4074426E0,5.579882E0],"tree_param":{"num_deleted":"0","num_feature":"11","num_nodes":"9","size_leaf_vector":"1"}},{"base_weights":[-5.659151E-3,-2.734178E-1,1.7824431E-1,4.5255184E-2,-6.779423E-2,3.5375592E-1,-3.296585E-2,5.600154E-2,-4.3494307E-2,-3.982448E-3,6.960401E-2],"categories":[],"categories_nodes":[],"categories_segments":[],"categories_sizes":[],"default_left":[0,0,0,0,0,0,0,0,0,0,0],"id":38,"left_children":[1,3,5,7,-1,9,-1,-1,-1,-1,-1],"loss_changes":[7.5798935E-1,8.375766E-1,9.3175757E-1,1.3407416E0,0E0,1.0082103E0,0E0,0E0,0E0,0E0,0E0],"parents":[2147483647,0,0,1,1,2,2,3,3,5,5],"right_children":[2,4,6,8,-1,10,-1,-1,-1,-1,-1],"split_conditions":[3.9261413E-1,4.65914E-1,7.2645444E-1,1.919614E-1,-6.779423E-2,2.8376168E-1,-3.296585E-2,5.600154E-2,-4.3494307E-2,-3.982448E-3,6.960401E-2],"split_indices":[3,0,6,3,0,6,0,0,0,0,0],"split_type":[0,0,0,0,0,0,0,0,0,0,0],"sum_hessian":[1.3403515E1,5.259326E0,8.144189E0,3.4386122E0,1.820714E0,6.278187E0,1.866002E0,1.5793608E0,1.8592513E0,3.3312976E0,2.9468892E0],"tree_param":{"num_deleted":"0","num_feature":"11","num_nodes":"11","size_leaf_vector":"1"}},{"base_weights":[-6.7888102E-3,-2.690576E-1,1.7208327E-1,1.9008829E-1,-6.315795E-1,4.232842E-1,-3.276083E-1,-2.060663E-2,4.5110155E-2,-7.5233124E-2,-1.628909E-2,8.337384E-2,-1.0227979E-2,2.430023E-2,-7.0808016E-2],"categories":[],"categories_nodes":[],"categories_segments":[],"categories_sizes":[],"default_left":[0,0,0,0,0,0,0,0,0,0,0,0,0,0,0],"id":39,"left_children":[1,3,5,7,9,11,13,-1,-1,-1,-1,-1,-1,-1,-1],"loss_changes":[7.125574E-1,1.1435096E0,1.2750816E0,4.5294714E-1,8.499837E-2,1.4790413E0,9.519802E-1,0E0,0E0,0E0,0E0,0E0,0E0,0E0,0E0],"parents":[2147483647,0,0,1,1,2,2,3,3,4,4,5,5,6,6],"right_children":[2,4,6,8,10,12,14,-1,-1,-1,-1,-1,-1,-1,-1],"split_conditions":[4.592298E-1,4.5374915E-1,5.704129E-1,5.8038837E-1,7.822851E-1,5.312683E-1,4.9074104E-1,-2.060663E-2,4.5110155E-2,-7.5233124E-2,-1.628909E-2,8.337384E-2,-1.0227979E-2,2.430023E-2,-7.0808016E-2],"split_indices":[8,7,1,4,5,9,4,0,0,0,0,0,0,0,0],"split_type":[0,0,0,0,0,0,0,0,0,0,0,0,0,0,0],"sum_hessian":[1.3202102E1,5.1486993E0,8.053402E0,2.4814773E0,2.6672223E0,5.4610004E0,2.5924015E0,1.0692024E0,1.4122748E0,1.639613E0,1.0276092E0,2.7370524E0,2.723948E0,1.1816068E0,1.4107947E0],"tree_param":{"num_deleted":"0","num_feature":"11","num_nodes":"15","size_leaf_vector":"1"}},{"base_weights":[-9.223697E-3,-2.640868E-1,1.6633978E-1,6.406645E-2,-6.305448E-2,3.0138516E-1,-4.0986713E-2,-3.5814043E-2,3.988775E-2,-2.4894103E-2,4.5453172E-2],"categories":[],"categories_nodes":[],"categories_segments":[],"categories_sizes":[],"default_left":[0,0,0,0,0,0,0,0,0,0,0],"id":40,"left_children":[1,3,5,7,-1,9,-1,-1,-1,-1,-1],"loss_changes":[6.698302E-1,7.729912E-1,8.1578296E-1,7.255043E-1,0E0,7.691404E-1,0E0,0E0,0E0,0E0,0E0],"parents":[2147483647,0,0,1,1,2,2,3,3,5,5],"right_children":[2,4,6,8,-1,10,-1,-1,-1,-1,-1],"split_conditions":[3.9261413E-1,6.4785016E-1,8.260641E-1,4.4363663E-1,-6.305448E-2,3.0870888E-1,-4.0986713E-2,-3.5814043E-2,3.988775E-2,-2.4894103E-2,4.5453172E-2],"split_indices":[3,2,5,6,0,10,0,0,0,0,0],"split_type":[0,0,0,0,0,0,0,0,0,0,0],"sum_hessian":[1.2988309E1,5.0920396E0,7.8962693E0,3.1217608E0,1.970279E0,6.7833967E0,1.1128724E0,1.349863E0,1.7718977E0,1.3405766E0,5.44282E0],"tree_param":{"num_deleted":"0","num_feature":"11","num_nodes":"11","size_leaf_vector":"1"}},{"base_weights":[-1.4259589E-2,-1.2065963E-1,4.0550613E-1,1.6235487E-1,-4.5308232E-1,5.6151487E-2,4.8913127E-3,3.5163436E-2,-2.961568E-2,-6.933188E-2,6.0264408E-3],"categories":[],"categories_nodes":[],"categories_segments":[],"categories_sizes":[],"default_left":[0,0,0,0,0,0,0,0,0,0,0],"id":41,"left_children":[1,3,5,7,9,-1,-1,-1,-1,-1,-1],"loss_changes":[6.679279E-1,1.1862867E0,1.4120495E-1,7.224652E-1,7.450706E-1,0E0,0E0,0E0,0E0,0E0,0E0],"parents":[2147483647,0,0,1,1,2,2,3,3,4,4],"right_children":[2,4,6,8,10,-1,-1,-1,-1,-1,-1],"split_conditions":[7.9481196E-1,4.5374915E-1,5.368294E-1,6.378428E-1,6.524086E-1,5.6151487E-2,4.8913127E-3,3.5163436E-2,-2.961568E-2,-6.933188E-2,6.0264408E-3],"split_indices":[7,7,4,5,5,0,0,0,0,0,0],"split_type":[0,0,0,0,0,0,0,0,0,0,0],"sum_hessian":[1.2859313E1,1.0827395E1,2.0319173E0,6.124654E0,4.7027416E0,1.0137416E0,1.0181756E0,4.5000653E0,1.6245885E0,2.9647229E0,1.7380189E0],"tree_param":{"num_deleted":"0","num_feature":"11","num_nodes":"11","size_leaf_vector":"1"}},{"base_weights":[-1.2937292E-2,4.45416E-2,-1.0759818E-1,-2.2639093E-1,3.532862E-2,3.2226264E-4,-5.4864436E-2],"categories":[],"categories_nodes":[],"categories_segments":[],"categories_sizes":[],"default_left":[0,0,0,0,0,0,0],"id":42,"left_children":[1,-1,3,5,-1,-1,-1],"loss_changes":[6.427581E-1,0E0,7.461914E-1,7.6272786E-1,0E0,0E0,0E0],"parents":[2147483647,0,0,2,2,3,3],"right_children":[2,-1,4,6,-1,-1,-1],"split_conditions":[1.1758014E-1,4.45416E-2,7.9481196E-1,5.0525534E-1,3.532862E-2,3.2226264E-4,-5.4864436E-2],"split_indices":[5,0,7,7,0,0,0],"split_type":[0,0,0,0,0,0,0],"sum_hessian":[1.2709559E1,1.5412679E0,1.1168292E1,9.284107E0,1.8841845E0,5.9993916E0,3.2847154E0],"tree_param":{"num_deleted":"0","num_feature":"11","num_nodes":"7","size_leaf_vector":"1"}},{"base_weights":[-1.0005655E-2,-4.9256973E-2,7.9022735E-2,-4.419758E-2,6.0846865E-2,2.4740515E-2,-3.3567764E-2],"categories":[],"categories_nodes":[],"categories_segments":[],"categories_sizes":[],"default_left":[0,0,0,0,0,0,0],"id":43,"left_children":[1,-1,3,5,-1,-1,-1],"loss_changes":[6.228515E-1,0E0,8.3170855E-1,1.012885E0,0E0,0E0,0E0],"parents":[2147483647,0,0,2,2,3,3],"right_children":[2,-1,4,6,-1,-1,-1],"split_conditions":[2.3228663E-1,-4.9256973E-2,8.0330807E-1,6.4785016E-1,6.0846865E-2,2.4740515E-2,-3.3567764E-2],"split_indices":[2,0,10,2,0,0,0],"split_type":[0,0,0,0,0,0,0],"sum_hessian":[1.2591747E1,1.2552329E0,1.1336514E1,9.93972E0,1.3967943E0,5.0444036E0,4.895316E0],"tree_param":{"num_deleted":"0","num_feature":"11","num_nodes":"7","size_leaf_vector":"1"}},{"base_weights":[-8.890054E-3,-2.54302E-1,1.585496E-1,1.1467884E-1,-5.9883703E-2,3.464535E-1,-2.3982371E-1,-3.2246247E-2,6.012425E-2,5.6331106E-2,-2.7983243E-2,2.2715226E-2,-6.4534664E-2],"categories":[],"categories_nodes":[],"categories_segments":[],"categories_sizes":[],"default_left":[0,0,0,0,0,0,0,0,0,0,0,0,0],"id":44,"left_children":[1,3,5,7,-1,9,11,-1,-1,-1,-1,-1,-1],"loss_changes":[5.951531E-1,8.136571E-1,7.300054E-1,9.742568E-1,0E0,1.0107385E0,7.830219E-1,0E0,0E0,0E0,0E0,0E0,0E0],"parents":[2147483647,0,0,1,1,2,2,3,3,5,5,6,6],"right_children":[2,4,6,8,-1,10,12,-1,-1,-1,-1,-1,-1],"split_conditions":[2.865386E-1,4.860223E-1,8.140626E-1,3.768616E-1,-5.9883703E-2,8.169238E-1,3.9507505E-1,-3.2246247E-2,6.012425E-2,5.6331106E-2,-2.7983243E-2,2.2715226E-2,-6.4534664E-2],"split_indices":[6,4,6,4,0,4,5,0,0,0,0,0,0],"split_type":[0,0,0,0,0,0,0,0,0,0,0,0,0],"sum_hessian":[1.2502331E1,4.8601575E0,7.642174E0,2.6689675E0,2.1911898E0,5.2813888E0,2.3607848E0,1.58354E0,1.0854274E0,3.9976997E0,1.283689E0,1.30169E0,1.0590948E0],"tree_param":{"num_deleted":"0","num_feature":"11","num_nodes":"13","size_leaf_vector":"1"}},{"base_weights":[-1.1653281E-2,4.312267E-2,-1.0402369E-1,-2.3320207E-1,2.98487E-1,-8.217295E-4,-5.984929E-2,-1.7730517E-2,6.0448218E-2],"categories":[],"categories_nodes":[],"categories_segments":[],"categories_sizes":[],"default_left":[0,0,0,0,0,0,0,0,0],"id":45,"left_children":[1,-1,3,5,7,-1,-1,-1,-1],"loss_changes":[5.899353E-1,0E0,6.847372E-1,7.7727616E-1,5.8950347E-1,0E0,0E0,0E0,0E0],"parents":[2147483647,0,0,2,2,3,3,4,4],"right_children":[2,-1,4,6,8,-1,-1,-1,-1],"split_conditions":[1.1758014E-1,4.312267E-2,7.896236E-1,5.0525534E-1,4.392445E-1,-8.217295E-4,-5.984929E-2,-1.7730517E-2,6.0448218E-2],"split_indices":[5,0,7,7,8,0,0,0,0],"split_type":[0,0,0,0,0,0,0,0,0],"sum_hessian":[1.2324145E1,1.4937495E0,1.0830396E1,8.517494E0,2.3129013E0,5.9038024E0,2.6136918E0,1.0698903E0,1.243011E0],"tree_param":{"num_deleted":"0","num_feature":"11","num_nodes":"9","size_leaf_vector":"1"}},{"base_weights":[-8.778669E-3,-4.7606923E-2,7.738451E-2,-4.0015467E-2,5.8015484E-2,5.5111837E-2,-1.708514E-2],"categories":[],"categories_nodes":[],"categories_segments":[],"categories_sizes":[],"default_left":[0,0,0,0,0,0,0],"id":46,"left_children":[1,-1,3,5,-1,-1,-1],"loss_changes":[5.677481E-1,0E0,7.3112106E-1,9.184959E-1,0E0,0E0,0E0],"parents":[2147483647,0,0,2,2,3,3],"right_children":[2,-1,4,6,-1,-1,-1],"split_conditions":[2.3228663E-1,-4.7606923E-2,8.0330807E-1,3.055704E-1,5.8015484E-2,5.5111837E-2,-1.708514E-2],"split_indices":[2,0,10,2,0,0,0],"split_type":[0,0,0,0,0,0,0],"sum_hessian":[1.2185918E1,1.1926405E0,1.0993277E1,9.658393E0,1.3348842E0,1.1681685E0,8.490224E0],"tree_param":{"num_deleted":"0","num_feature":"11","num_nodes":"7","size_leaf_vector":"1"}},{"base_weights":[-4.2330218E-3,-2.3954739E-1,1.5541656E-1,1.1739123E-1,-5.7738107E-2,3.3306885E-1,-2.2821888E-1,-2.9436955E-2,5.6325734E-2,5.3611584E-2,-2.5456145E-2,1.0663721E-2,-4.416996E-2],"categories":[],"categories_nodes":[],"categories_segments":[],"categories_sizes":[],"default_left":[0,0,0,0,0,0,0,0,0,0,0,0,0],"id":47,"left_children":[1,3,5,7,-1,9,11,-1,-1,-1,-1,-1,-1],"loss_changes":[5.2898693E-1,7.532599E-1,6.488626E-1,8.258437E-1,0E0,8.7045354E-1,2.7969608E-1,0E0,0E0,0E0,0E0,0E0,0E0],"parents":[2147483647,0,0,1,1,2,2,3,3,5,5,6,6],"right_children":[2,4,6,8,-1,10,12,-1,-1,-1,-1,-1,-1],"split_conditions":[2.865386E-1,4.860223E-1,8.140626E-1,3.768616E-1,-5.7738107E-2,8.169238E-1,3.736649E-1,-2.9436955E-2,5.6325734E-2,5.3611584E-2,-2.5456145E-2,1.0663721E-2,-4.416996E-2],"split_indices":[6,4,6,4,0,4,5,0,0,0,0,0,0],"split_type":[0,0,0,0,0,0,0,0,0,0,0,0,0],"sum_hessian":[1.2089848E1,4.6845827E0,7.405265E0,2.59517E0,2.0894127E0,5.1515265E0,2.2537382E0,1.5258324E0,1.0693376E0,3.89376E0,1.2577667E0,1.0722845E0,1.1814537E0],"tree_param":{"num_deleted":"0","num_feature":"11","num_nodes":"13","size_leaf_vector":"1"}},{"base_weights":[-6.7184204E-3,-1.738816E-1,2.4068058E-1,9.9543504E-2,-6.382882E-2,5.601129E-1,-2.579612E-2,-3.334449E-2,3.7394788E-2,8.716047E-2,3.1097552E-3],"categories":[],"categories_nodes":[],"categories_segments":[],"categories_sizes":[],"default_left":[0,0,0,0,0,0,0,0,0,0,0],"id":48,"left_children":[1,3,5,7,-1,9,-1,-1,-1,-1,-1],"loss_changes":[5.768729E-1,1.1176026E0,1.0422027E0,8.4825736E-1,0E0,5.9094155E-1,0E0,0E0,0E0,0E0,0E0],"parents":[2147483647,0,0,1,1,2,2,3,3,5,5],"right_children":[2,4,6,8,-1,10,-1,-1,-1,-1,-1],"split_conditions":[5.933605E-1,6.454327E-1,5.3199345E-1,5.4956615E-1,-6.382882E-2,4.5374915E-1,-2.579612E-2,-3.334449E-2,3.7394788E-2,8.716047E-2,3.1097552E-3],"split_indices":[3,0,10,5,0,7,0,0,0,0,0],"split_type":[0,0,0,0,0,0,0,0,0,0,0],"sum_hessian":[1.1937009E1,7.3010073E0,4.6360016E0,5.0899124E0,2.2110946E0,2.7506468E0,1.8853549E0,1.8909632E0,3.1989493E0,1.3236593E0,1.4269875E0],"tree_param":{"num_deleted":"0","num_feature":"11","num_nodes":"11","size_leaf_vector":"1"}},{"base_weights":[-5.7808137E-3,-9.7880304E-2,4.0747646E-2,-4.524949E-1,1.428358E-1,1.43989725E-2,-7.015102E-2,-6.464995E-3,5.389523E-2],"categories":[],"categories_nodes":[],"categories_segments":[],"categories_sizes":[],"default_left":[0,0,0,0,0,0,0,0,0],"id":49,"left_children":[1,3,-1,5,7,-1,-1,-1,-1],"loss_changes":[5.270881E-1,1.0270077E0,0E0,8.137506E-1,6.49253E-1,0E0,0E0,0E0,0E0],"parents":[2147483647,0,0,1,1,3,3,4,4],"right_children":[2,4,-1,6,8,-1,-1,-1,-1],"split_conditions":[8.840193E-1,2.865386E-1,4.0747646E-2,1.8619953E-1,5.707111E-1,1.43989725E-2,-7.015102E-2,-6.464995E-3,5.389523E-2],"split_indices":[9,6,0,9,3,0,0,0,0],"split_type":[0,0,0,0,0,0,0,0,0],"sum_hessian":[1.1800687E1,1.0274121E1,1.5265657E0,3.7985067E0,6.475614E0,1.2429473E0,2.5555594E0,4.798796E0,1.6768179E0],"tree_param":{"num_deleted":"0","num_feature":"11","num_nodes":"9","size_leaf_vector":"1"}},{"base_weights":[-2.9018808E-3,9.5426776E-2,-3.8987134E-2,-5.8847286E-2,2.2422975E-1,4.2188134E-2,-1.706195E-2],"categories":[],"categories_nodes":[],"categories_segments":[],"categories_sizes":[],"default_left":[0,0,0,0,0,0,0],"id":50,"left_children":[1,3,-1,-1,5,-1,-1],"loss_changes":[5.195431E-1,1.0931134E0,0E0,0E0,8.4508E-1,0E0,0E0],"parents":[2147483647,0,0,1,1,4,4],"right_children":[2,4,-1,-1,6,-1,-1],"split_conditions":[8.2728857E-1,2.5587142E-1,-3.8987134E-2,-5.8847286E-2,7.2393996E-1,4.2188134E-2,-1.706195E-2],"split_indices":[5,4,0,0,4,0,0],"split_type":[0,0,0,0,0,0,0],"sum_hessian":[1.1676389E1,9.911327E0,1.7650613E0,1.0052123E0,8.906115E0,5.889512E0,3.0166032E0],"tree_param":{"num_deleted":"0","num_feature":"11","num_nodes":"7","size_leaf_vector":"1"}},{"base_weights":[-8.504629E-3,4.0912893E-2,-9.707243E-2,-5.4941762E-2,1.5503681E-2,-5.4653853E-2,1.5051968E-2],"categories":[],"categories_nodes":[],"categories_segments":[],"categories_sizes":[],"default_left":[0,0,0,0,0,0,0],"id":51,"left_children":[1,-1,3,-1,5,-1,-1],"loss_changes":[5.0481015E-1,0E0,5.779492E-1,0E0,8.355228E-1,0E0,0E0],"parents":[2147483647,0,0,2,2,4,4],"right_children":[2,-1,4,-1,6,-1,-1],"split_conditions":[1.1758014E-1,4.0912893E-2,2.8002805E-1,-5.4941762E-2,2.4551357E-1,-5.4653853E-2,1.5051968E-2],"split_indices":[5,0,2,0,5,0,0],"split_type":[0,0,0,0,0,0,0],"sum_hessian":[1.1573913E1,1.391768E0,1.0182144E1,1.2557937E0,8.926351E0,1.1386102E0,7.78774E0],"tree_param":{"num_deleted":"0","num_feature":"11","num_nodes":"7","size_leaf_vector":"1"}},{"base_weights":[-1.2117431E-2,3.8861733E-2,-9.652031E-2,-2.1853538E-1,2.8291228E-1,-1.1661974E-3,-5.569656E-2,-9.129341E-3,5.3138327E-2],"categories":[],"categories_nodes":[],"categories_segments":[],"categories_sizes":[],"default_left":[0,0,0,0,0,0,0,0,0],"id":52,"left_children":[1,-1,3,5,7,-1,-1,-1,-1],"loss_changes":[4.6007174E-1,0E0,5.766794E-1,6.2214434E-1,3.4063217E-1,0E0,0E0,0E0,0E0],"parents":[2147483647,0,0,2,2,3,3,4,4],"right_children":[2,-1,4,6,8,-1,-1,-1,-1],"split_conditions":[1.1758014E-1,3.8861733E-2,7.896236E-1,5.0525534E-1,6.3810635E-1,-1.1661974E-3,-5.569656E-2,-9.129341E-3,5.3138327E-2],"split_indices":[5,0,7,7,8,0,0,0,0],"split_type":[0,0,0,0,0,0,0,0,0],"sum_hessian":[1.14932785E1,1.3725E0,1.0120779E1,7.9789996E0,2.1417794E0,5.593997E0,2.3850026E0,1.1070715E0,1.0347079E0],"tree_param":{"num_deleted":"0","num_feature":"11","num_nodes":"9","size_leaf_vector":"1"}},{"base_weights":[-8.991915E-3,-1.596624E-1,2.1364889E-1,1.3208304E-1,-5.6841546E-1,5.1382357E-1,-2.6546571E-2,-1.9370828E-2,4.236869E-2,-1.1631302E-2,-7.1469985E-2,8.2799524E-2,-1.0789353E-2],"categories":[],"categories_nodes":[],"categories_segments":[],"categories_sizes":[],"default_left":[0,0,0,0,0,0,0,0,0,0,0,0,0],"id":53,"left_children":[1,3,5,7,9,11,-1,-1,-1,-1,-1,-1,-1],"loss_changes":[4.4936436E-1,1.0237232E0,9.16451E-1,6.0014695E-1,1.4845538E-1,8.0721444E-1,0E0,0E0,0E0,0E0,0E0,0E0,0E0],"parents":[2147483647,0,0,1,1,2,2,3,3,4,4,5,5],"right_children":[2,4,6,8,10,12,-1,-1,-1,-1,-1,-1,-1],"split_conditions":[5.933605E-1,5.784689E-1,6.590472E-1,1.9145188E-1,4.9954683E-1,3.9507505E-1,-2.6546571E-2,-1.9370828E-2,4.236869E-2,-1.1631302E-2,-7.1469985E-2,8.2799524E-2,-1.0789353E-2],"split_indices":[3,0,9,0,2,5,0,0,0,0,0,0,0],"split_type":[0,0,0,0,0,0,0,0,0,0,0,0,0],"sum_hessian":[1.1378828E1,6.9549727E0,4.4238553E0,4.4533095E0,2.5016634E0,2.6752896E0,1.7485654E0,2.2619188E0,2.1913905E0,1.0504099E0,1.4512535E0,1.5568038E0,1.1184859E0],"tree_param":{"num_deleted":"0","num_feature":"11","num_nodes":"13","size_leaf_vector":"1"}},{"base_weights":[-9.428911E-3,-9.797061E-2,3.8191374E-2,-4.4713035E-1,1.3739084E-1,1.1504703E-2,-6.723708E-2,-5.0320295E-3,4.9020816E-2],"categories":[],"categories_nodes":[],"categories_segments":[],"categories_sizes":[],"default_left":[0,0,0,0,0,0,0,0,0],"id":54,"left_children":[1,3,-1,5,7,-1,-1,-1,-1],"loss_changes":[4.6119595E-1,9.46458E-1,0E0,6.5621734E-1,5.013784E-1,0E0,0E0,0E0,0E0],"parents":[2147483647,0,0,1,1,3,3,4,4],"right_children":[2,4,-1,6,8,-1,-1,-1,-1],"split_conditions":[8.840193E-1,2.865386E-1,3.8191374E-2,1.8619953E-1,5.707111E-1,1.1504703E-2,-6.723708E-2,-5.0320295E-3,4.9020816E-2],"split_indices":[9,6,0,9,3,0,0,0,0],"split_type":[0,0,0,0,0,0,0,0,0],"sum_hessian":[1.1230241E1,9.769529E0,1.4607116E0,3.571473E0,6.198056E0,1.1615607E0,2.4099123E0,4.6052685E0,1.5927879E0],"tree_param":{"num_deleted":"0","num_feature":"11","num_nodes":"9","size_leaf_vector":"1"}},{"base_weights":[-6.574564E-3,-4.2753384E-2,7.136264E-2,2.9070222E-1,-1.5336157E-1,5.0025474E-2,-5.377756E-3,-5.4933418E-2,1.10906325E-2],"categories":[],"categories_nodes":[],"categories_segments":[],"categories_sizes":[],"default_left":[0,0,0,0,0,0,0,0,0],"id":55,"left_children":[1,-1,3,5,7,-1,-1,-1,-1],"loss_changes":[4.2800918E-1,0E0,5.9072703E-1,4.565968E-1,7.021212E-1,0E0,0E0,0E0,0E0],"parents":[2147483647,0,0,2,2,3,3,4,4],"right_children":[2,-1,4,6,8,-1,-1,-1,-1],"split_conditions":[2.3228663E-1,-4.2753384E-2,6.4785016E-1,5.3199345E-1,3.7015474E-1,5.0025474E-2,-5.377756E-3,-5.4933418E-2,1.10906325E-2],"split_indices":[2,0,2,10,3,0,0,0,0],"split_type":[0,0,0,0,0,0,0,0,0],"sum_hessian":[1.1115783E1,1.0357586E0,1.0080024E1,4.9525485E0,5.1274757E0,2.7981722E0,2.154376E0,1.6205623E0,3.5069134E0],"tree_param":{"num_deleted":"0","num_feature":"11","num_nodes":"9","size_leaf_vector":"1"}},{"base_weights":[-9.564929E-3,-1.0333145E-1,3.5277005E-2,1.3850074E-1,-3.438718E-1,-1.4028157E-2,4.5782786E-2,1.814496E-3,-7.439478E-2],"categories":[],"categories_nodes":[],"categories_segments":[],"categories_sizes":[],"default_left":[0,0,0,0,0,0,0,0,0],"id":56,"left_children":[1,3,-1,5,7,-1,-1,-1,-1],"loss_changes":[4.449218E-1,6.482057E-1,0E0,5.8601314E-1,8.047555E-1,0E0,0E0,0E0,0E0],"parents":[2147483647,0,0,1,1,3,3,4,4],"right_children":[2,4,-1,6,8,-1,-1,-1,-1],"split_conditions":[8.0330807E-1,5.784689E-1,3.5277005E-2,2.4481618E-1,5.3199345E-1,-1.4028157E-2,4.5782786E-2,1.814496E-3,-7.439478E-2],"split_indices":[10,0,0,0,10,0,0,0,0],"split_type":[0,0,0,0,0,0,0,0,0],"sum_hessian":[1.102269E1,9.32448E0,1.698209E0,4.8612914E0,4.463189E0,2.8947675E0,1.9665239E0,2.8442018E0,1.6189871E0],"tree_param":{"num_deleted":"0","num_feature":"11","num_nodes":"9","size_leaf_vector":"1"}},{"base_weights":[-9.360895E-3,-2.2647868E-1,1.4228688E-1,1.404101E-1,-5.259688E-2,3.613098E-1,-2.706837E-1,-1.5884148E-2,3.867342E-2,6.8009846E-2,-6.6793137E-3,2.2045016E-2,-6.2044907E-2],"categories":[],"categories_nodes":[],"categories_segments":[],"categories_sizes":[],"default_left":[0,0,0,0,0,0,0,0,0,0,0,0,0],"id":57,"left_children":[1,3,5,7,-1,9,11,-1,-1,-1,-1,-1,-1],"loss_changes":[4.2404884E-1,6.539751E-1,7.870938E-1,2.9451805E-1,0E0,7.834773E-1,6.886647E-1,0E0,0E0,0E0,0E0,0E0,0E0],"parents":[2147483647,0,0,1,1,2,2,3,3,5,5,6,6],"right_children":[2,4,6,8,-1,10,12,-1,-1,-1,-1,-1,-1],"split_conditions":[4.592298E-1,4.5374915E-1,5.704129E-1,3.763722E-1,-5.259688E-2,5.312683E-1,4.9074104E-1,-1.5884148E-2,3.867342E-2,6.8009846E-2,-6.6793137E-3,2.2045016E-2,-6.2044907E-2],"split_indices":[8,7,1,3,0,9,4,0,0,0,0,0,0],"split_type":[0,0,0,0,0,0,0,0,0,0,0,0,0],"sum_hessian":[1.0900342E1,4.279634E0,6.620708E0,2.1621156E0,2.1175187E0,4.407986E0,2.212722E0,1.1365312E0,1.0255842E0,2.189175E0,2.218811E0,1.0741462E0,1.1385758E0],"tree_param":{"num_deleted":"0","num_feature":"11","num_nodes":"13","size_leaf_vector":"1"}},{"base_weights":[-9.308392E-3,-9.843435E-2,3.736772E-2,-4.311764E-1,1.246941E-1,8.929793E-3,-6.338795E-2,3.2127615E-2,-1.863188E-2],"categories":[],"categories_nodes":[],"categories_segments":[],"categories_sizes":[],"default_left":[0,0,0,0,0,0,0,0,0],"id":58,"left_children":[1,3,-1,5,7,-1,-1,-1,-1],"loss_changes":[4.3698847E-1,8.1868005E-1,0E0,5.165767E-1,4.8434117E-1,0E0,0E0,0E0,0E0],"parents":[2147483647,0,0,1,1,3,3,4,4],"right_children":[2,4,-1,6,8,-1,-1,-1,-1],"split_conditions":[8.840193E-1,2.865386E-1,3.736772E-2,1.8619953E-1,6.454327E-1,8.929793E-3,-6.338795E-2,3.2127615E-2,-1.863188E-2],"split_indices":[9,6,0,9,0,0,0,0,0],"split_type":[0,0,0,0,0,0,0,0,0],"sum_hessian":[1.07245655E1,9.302686E0,1.4218799E0,3.3598578E0,5.9428277E0,1.0985668E0,2.261291E0,3.6210618E0,2.3217657E0],"tree_param":{"num_deleted":"0","num_feature":"11","num_nodes":"9","size_leaf_vector":"1"}},{"base_weights":[-8.956835E-3,-9.373444E-2,3.526299E-2,9.356666E-2,-4.5717645E-1,-2.7852753E-2,3.7942834E-2,-7.181277E-2,1.6094999E-4],"categories":[],"categories_nodes":[],"categories_segments":[],"categories_sizes":[],"default_left":[0,0,0,0,0,0,0,0,0],"id":59,"left_children":[1,3,-1,5,7,-1,-1,-1,-1],"loss_changes":[3.8911232E-1,7.370653E-1,0E0,9.098896E-1,4.3676043E-1,0E0,0E0,0E0,0E0],"parents":[2147483647,0,0,1,1,3,3,4,4],"right_children":[2,4,-1,6,8,-1,-1,-1,-1],"split_conditions":[8.840193E-1,6.590472E-1,3.526299E-2,4.027285E-1,2.8376168E-1,-2.7852753E-2,3.7942834E-2,-7.181277E-2,1.6094999E-4],"split_indices":[9,9,0,3,6,0,0,0,0],"split_type":[0,0,0,0,0,0,0,0,0],"sum_hessian":[1.0615234E1,9.199167E0,1.4160671E0,6.5606613E0,2.6385057E0,2.8615532E0,3.699108E0,1.3215486E0,1.3169571E0],"tree_param":{"num_deleted":"0","num_feature":"11","num_nodes":"9","size_leaf_vector":"1"}},{"base_weights":[-1.0592777E-2,8.062723E-2,-3.5267066E-2,-1.279862E-1,3.5414106E-1,3.91838E-2,-3.1280264E-2,5.8235075E-2,-4.673512E-3],"categories":[],"categories_nodes":[],"categories_segments":[],"categories_sizes":[],"default_left":[0,0,0,0,0,0,0,0,0],"id":60,"left_children":[1,3,-1,5,7,-1,-1,-1,-1],"loss_changes":[3.8750932E-1,6.10124E-1,0E0,7.3263097E-1,4.4333112E-1,0E0,0E0,0E0,0E0],"parents":[2147483647,0,0,1,1,3,3,4,4],"right_children":[2,4,-1,6,8,-1,-1,-1,-1],"split_conditions":[8.2728857E-1,5.933605E-1,-3.5267066E-2,1.1118869E-1,7.312871E-1,3.91838E-2,-3.1280264E-2,5.8235075E-2,-4.673512E-3],"split_indices":[5,3,0,0,8,0,0,0,0],"split_type":[0,0,0,0,0,0,0,0,0],"sum_hessian":[1.05071945E1,8.898565E0,1.6086296E0,5.350057E0,3.5485082E0,1.1094408E0,4.2406163E0,1.9727639E0,1.5757443E0],"tree_param":{"num_deleted":"0","num_feature":"11","num_nodes":"9","size_leaf_vector":"1"}},{"base_weights":[-7.3098047E-3,-2.1067794E-1,1.3546193E-1,1.4450829E-1,-5.0711907E-2,3.4260607E-1,-2.54427E-1,-3.9506825E-3,2.6539465E-2,6.353973E-2,-5.393102E-3,2.1203822E-2,-5.909116E-2],"categories":[],"categories_nodes":[],"categories_segments":[],"categories_sizes":[],"default_left":[0,0,0,0,0,0,0,0,0,0,0,0,0],"id":61,"left_children":[1,3,5,7,-1,9,11,-1,-1,-1,-1,-1,-1],"loss_changes":[3.6042684E-1,6.109116E-1,6.787142E-1,7.9468995E-2,0E0,6.3908553E-1,6.1423826E-1,0E0,0E0,0E0,0E0,0E0,0E0],"parents":[2147483647,0,0,1,1,2,2,3,3,5,5,6,6],"right_children":[2,4,6,8,-1,10,12,-1,-1,-1,-1,-1,-1],"split_conditions":[4.592298E-1,4.5374915E-1,5.704129E-1,6.6875845E-1,-5.0711907E-2,5.312683E-1,4.9074104E-1,-3.9506825E-3,2.6539465E-2,6.353973E-2,-5.393102E-3,2.1203822E-2,-5.909116E-2],"split_indices":[8,7,1,4,0,9,4,0,0,0,0,0,0],"split_type":[0,0,0,0,0,0,0,0,0,0,0,0,0],"sum_hessian":[1.0430532E1,4.106083E0,6.32445E0,2.1011162E0,2.0049667E0,4.209341E0,2.115109E0,1.0999483E0,1.0011679E0,2.074918E0,2.1344228E0,1.0413454E0,1.0737637E0],"tree_param":{"num_deleted":"0","num_feature":"11","num_nodes":"13","size_leaf_vector":"1"}},{"base_weights":[-7.4093128E-3,-9.12869E-2,3.409339E-2,-2.1884063E-1,3.8834777E-2,6.0705724E-3,-5.1048912E-2],"categories":[],"categories_nodes":[],"categories_segments":[],"categories_sizes":[],"default_left":[0,0,0,0,0,0,0],"id":62,"left_children":[1,3,-1,5,-1,-1,-1],"loss_changes":[3.6065558E-1,6.893414E-1,0E0,7.193278E-1,0E0,0E0,0E0],"parents":[2147483647,0,0,1,1,3,3],"right_children":[2,4,-1,6,-1,-1,-1],"split_conditions":[8.840193E-1,7.896236E-1,3.409339E-2,5.3199345E-1,3.8834777E-2,6.0705724E-3,-5.1048912E-2],"split_indices":[9,7,0,10,0,0,0],"split_type":[0,0,0,0,0,0,0],"sum_hessian":[1.0278345E1,8.878444E0,1.3999014E0,7.442836E0,1.435608E0,4.2045803E0,3.2382555E0],"tree_param":{"num_deleted":"0","num_feature":"11","num_nodes":"7","size_leaf_vector":"1"}},{"base_weights":[-4.318112E-3,-2.0363891E-1,1.3722464E-1,1.3560796E-1,-4.9007E-2,3.3029962E-1,-2.314125E-1,-4.097388E-3,2.5266496E-2,6.1196536E-2,-4.9883886E-3,2.0987071E-2,-5.611191E-2],"categories":[],"categories_nodes":[],"categories_segments":[],"categories_sizes":[],"default_left":[0,0,0,0,0,0,0,0,0,0,0,0,0],"id":63,"left_children":[1,3,5,7,-1,9,11,-1,-1,-1,-1,-1,-1],"loss_changes":[3.4402683E-1,5.5764395E-1,5.852482E-1,7.437533E-2,0E0,5.770386E-1,5.608278E-1,0E0,0E0,0E0,0E0,0E0,0E0],"parents":[2147483647,0,0,1,1,2,2,3,3,5,5,6,6],"right_children":[2,4,6,8,-1,10,12,-1,-1,-1,-1,-1,-1],"split_conditions":[4.592298E-1,4.5374915E-1,5.704129E-1,6.6875845E-1,-4.9007E-2,5.312683E-1,4.9074104E-1,-4.097388E-3,2.5266496E-2,6.1196536E-2,-4.9883886E-3,2.0987071E-2,-5.611191E-2],"split_indices":[8,7,1,4,0,9,4,0,0,0,0,0,0],"split_type":[0,0,0,0,0,0,0,0,0,0,0,0,0],"sum_hessian":[1.020367E1,4.054876E0,6.148794E0,2.09735E0,1.957526E0,4.1035457E0,2.0452485E0,1.0951978E0,1.0021521E0,2.0069807E0,2.096565E0,1.0300626E0,1.0151858E0],"tree_param":{"num_deleted":"0","num_feature":"11","num_nodes":"13","size_leaf_vector":"1"}},{"base_weights":[-4.58621E-3,-9.1523916E-2,3.2091897E-2,1.4819914E-1,-3.4008297E-1,-1.0842137E-2,4.4253197E-2,-6.451562E-2,4.057758E-3],"categories":[],"categories_nodes":[],"categories_segments":[],"categories_sizes":[],"default_left":[0,0,0,0,0,0,0,0,0],"id":64,"left_children":[1,3,-1,5,7,-1,-1,-1,-1],"loss_changes":[3.4235424E-1,6.1686367E-1,0E0,4.6611568E-1,6.034433E-1,0E0,0E0,0E0,0E0],"parents":[2147483647,0,0,1,1,3,3,4,4],"right_children":[2,4,-1,6,8,-1,-1,-1,-1],"split_conditions":[8.0330807E-1,5.784689E-1,3.2091897E-2,2.4481618E-1,5.933605E-1,-1.0842137E-2,4.4253197E-2,-6.451562E-2,4.057758E-3],"split_indices":[10,0,0,0,3,0,0,0,0],"split_type":[0,0,0,0,0,0,0,0,0],"sum_hessian":[1.005997E1,8.5067625E0,1.5532078E0,4.5358877E0,3.9708748E0,2.760619E0,1.7752689E0,1.818577E0,2.1522977E0],"tree_param":{"num_deleted":"0","num_feature":"11","num_nodes":"9","size_leaf_vector":"1"}},{"base_weights":[-3.8517648E-3,8.125744E-2,-3.2074094E-2,-4.1054647E-2,5.281661E-2,1.4642467E-2,-4.0839378E-2],"categories":[],"categories_nodes":[],"categories_segments":[],"categories_sizes":[],"default_left":[0,0,0,0,0,0,0],"id":65,"left_children":[1,3,-1,5,-1,-1,-1],"loss_changes":[3.214576E-1,5.3724086E-1,0E0,6.336733E-1,0E0,0E0,0E0],"parents":[2147483647,0,0,1,1,3,3],"right_children":[2,4,-1,6,-1,-1,-1],"split_conditions":[8.2728857E-1,8.840193E-1,-3.2074094E-2,6.590472E-1,5.281661E-2,1.4642467E-2,-4.0839378E-2],"split_indices":[5,9,0,9,0,0,0],"split_type":[0,0,0,0,0,0,0],"sum_hessian":[9.952648E0,8.431671E0,1.5209768E0,7.332904E0,1.0987676E0,5.2532086E0,2.0796952E0],"tree_param":{"num_deleted":"0","num_feature":"11","num_nodes":"7","size_leaf_vector":"1"}},{"base_weights":[-4.011715E-3,-1.9174024E-1,1.295446E-1,-4.7314253E-2,1.4731734E-2,4.5691334E-2,-9.6445754E-2,-4.44148E-2,1.911373E-2],"categories":[],"categories_nodes":[],"categories_segments":[],"categories_sizes":[],"default_left":[0,0,0,0,0,0,0,0,0],"id":66,"left_children":[1,3,5,-1,-1,-1,7,-1,-1],"loss_changes":[2.9803723E-1,5.403467E-1,5.592513E-1,0E0,0E0,0E0,5.794007E-1,0E0,0E0],"parents":[2147483647,0,0,1,1,2,2,6,6],"right_children":[2,4,6,-1,-1,-1,8,-1,-1],"split_conditions":[4.592298E-1,6.628209E-1,6.4469254E-1,-4.7314253E-2,1.4731734E-2,4.5691334E-2,7.747211E-1,-4.44148E-2,1.911373E-2],"split_indices":[8,4,8,0,0,0,8,0,0],"split_type":[0,0,0,0,0,0,0,0,0],"sum_hessian":[9.896406E0,3.9327831E0,5.963623E0,1.9330099E0,1.9997733E0,2.0182164E0,3.945407E0,1.5395715E0,2.4058354E0],"tree_param":{"num_deleted":"0","num_feature":"11","num_nodes":"9","size_leaf_vector":"1"}},{"base_weights":[-4.865089E-3,-8.2750425E-2,3.1167138E-2,-4.0156424E-1,1.2072416E-1,6.077562E-3,-6.062754E-2,-2.6874019E-2,2.4926728E-2],"categories":[],"categories_nodes":[],"categories_segments":[],"categories_sizes":[],"default_left":[0,0,0,0,0,0,0,0,0],"id":67,"left_children":[1,3,-1,5,7,-1,-1,-1,-1],"loss_changes":[2.9242274E-1,6.627835E-1,0E0,4.0789568E-1,3.948669E-1,0E0,0E0,0E0,0E0],"parents":[2147483647,0,0,1,1,3,3,4,4],"right_children":[2,4,-1,6,8,-1,-1,-1,-1],"split_conditions":[8.840193E-1,2.865386E-1,3.1167138E-2,4.5682737E-1,4.1281927E-1,6.077562E-3,-6.062754E-2,-2.6874019E-2,2.4926728E-2],"split_indices":[9,6,0,2,2,0,0,0,0],"split_type":[0,0,0,0,0,0,0,0,0],"sum_hessian":[9.815149E0,8.469711E0,1.3454382E0,2.9203813E0,5.5493298E0,1.112014E0,1.8083673E0,1.1064147E0,4.4429154E0],"tree_param":{"num_deleted":"0","num_feature":"11","num_nodes":"9","size_leaf_vector":"1"}},{"base_weights":[-6.9022872E-3,3.3334114E-2,-7.997609E-2,-4.885214E-2,2.8210549E-2,2.636508E-2,-2.1577617E-2],"categories":[],"categories_nodes":[],"categories_segments":[],"categories_sizes":[],"default_left":[0,0,0,0,0,0,0],"id":68,"left_children":[1,-1,3,-1,5,-1,-1],"loss_changes":[2.9385233E-1,0E0,4.404434E-1,0E0,5.496194E-1,0E0,0E0],"parents":[2147483647,0,0,2,2,4,4],"right_children":[2,-1,4,-1,6,-1,-1],"split_conditions":[1.1758014E-1,3.3334114E-2,2.8002805E-1,-4.885214E-2,6.4785016E-1,2.636508E-2,-2.1577617E-2],"split_indices":[5,0,2,0,2,0,0],"split_type":[0,0,0,0,0,0,0],"sum_hessian":[9.746664E0,1.0934905E0,8.653173E0,1.0756506E0,7.577523E0,3.8152857E0,3.7622373E0],"tree_param":{"num_deleted":"0","num_feature":"11","num_nodes":"7","size_leaf_vector":"1"}},{"base_weights":[-7.315475E-3,-8.838026E-2,2.9739726E-2,1.3775861E-1,-3.257469E-1,-1.1220173E-2,4.3047346E-2,-6.1705958E-2,3.650978E-3],"categories":[],"categories_nodes":[],"categories_segments":[],"categories_sizes":[],"default_left":[0,0,0,0,0,0,0,0,0],"id":69,"left_children":[1,3,-1,5,7,-1,-1,-1,-1],"loss_changes":[2.9017925E-1,5.3921217E-1,0E0,4.4479275E-1,5.2805334E-1,0E0,0E0,0E0,0E0],"parents":[2147483647,0,0,1,1,3,3,4,4],"right_children":[2,4,-1,6,8,-1,-1,-1,-1],"split_conditions":[8.0330807E-1,5.784689E-1,2.9739726E-2,2.4481618E-1,5.933605E-1,-1.1220173E-2,4.3047346E-2,-6.1705958E-2,3.650978E-3],"split_indices":[10,0,0,0,3,0,0,0,0],"split_type":[0,0,0,0,0,0,0,0,0],"sum_hessian":[9.68338E0,8.209348E0,1.4740328E0,4.419005E0,3.7903426E0,2.716213E0,1.7027918E0,1.7110255E0,2.079317E0],"tree_param":{"num_deleted":"0","num_feature":"11","num_nodes":"9","size_leaf_vector":"1"}},{"base_weights":[-6.443129E-3,8.3270945E-2,-2.721015E-2,-2.0621459E-1,2.9197648E-1,1.1355072E-2,-5.332286E-2,-3.9595556E-3,5.614776E-2],"categories":[],"categories_nodes":[],"categories_segments":[],"categories_sizes":[],"default_left":[0,0,0,0,0,0,0,0,0],"id":70,"left_children":[1,3,-1,5,7,-1,-1,-1,-1],"loss_changes":[2.7487305E-1,5.844254E-1,0E0,5.019214E-1,5.097447E-1,0E0,0E0,0E0,0E0],"parents":[2147483647,0,0,1,1,3,3,4,4],"right_children":[2,4,-1,6,8,-1,-1,-1,-1],"split_conditions":[8.140626E-1,3.9261413E-1,-2.721015E-2,2.4013585E-1,2.8376168E-1,1.1355072E-2,-5.332286E-2,-3.9595556E-3,5.614776E-2],"split_indices":[6,3,0,3,6,0,0,0,0],"split_type":[0,0,0,0,0,0,0,0,0],"sum_hessian":[9.582461E0,7.6765895E0,1.9058715E0,3.2209284E0,4.4556613E0,1.9585536E0,1.2623748E0,2.3802612E0,2.0753999E0],"tree_param":{"num_deleted":"0","num_feature":"11","num_nodes":"9","size_leaf_vector":"1"}},{"base_weights":[-7.4457726E-3,7.427004E-2,-3.0815748E-2,-3.9360203E-2,4.8497196E-2,-1.7875232E-2,3.671772E-2],"categories":[],"categories_nodes":[],"categories_segments":[],"categories_sizes":[],"default_left":[0,0,0,0,0,0,0],"id":71,"left_children":[1,3,-1,5,-1,-1,-1],"loss_changes":[2.803023E-1,4.4110817E-1,0E0,5.1944196E-1,0E0,0E0,0E0],"parents":[2147483647,0,0,1,1,3,3],"right_children":[2,4,-1,6,-1,-1,-1],"split_conditions":[8.2728857E-1,8.840193E-1,-3.0815748E-2,7.860831E-1,4.8497196E-2,-1.7875232E-2,3.671772E-2],"split_indices":[5,9,0,3,0,0,0],"split_type":[0,0,0,0,0,0,0],"sum_hessian":[9.475581E0,8.042988E0,1.4325936E0,7.0081763E0,1.0348115E0,5.636022E0,1.3721542E0],"tree_param":{"num_deleted":"0","num_feature":"11","num_nodes":"7","size_leaf_vector":"1"}},{"base_weights":[-3.2107397E-3,-8.955522E-2,2.5695337E-2,9.8616E-2,-4.0589982E-1,3.9370548E-2,-1.1828357E-2,-5.294274E-2,-6.048906E-3],"categories":[],"categories_nodes":[],"categories_segments":[],"categories_sizes":[],"default_left":[0,0,0,0,0,0,0,0,0],"id":72,"left_children":[1,3,-1,5,7,-1,-1,-1,-1],"loss_changes":[2.5699836E-1,5.4970986E-1,0E0,4.416868E-1,1.125741E-1,0E0,0E0,0E0,0E0],"parents":[2147483647,0,0,1,1,3,3,4,4],"right_children":[2,4,-1,6,8,-1,-1,-1,-1],"split_conditions":[7.896236E-1,5.0525534E-1,2.5695337E-2,3.6186066E-1,7.3662794E-1,3.9370548E-2,-1.1828357E-2,-5.294274E-2,-6.048906E-3],"split_indices":[7,7,0,1,2,0,0,0,0],"split_type":[0,0,0,0,0,0,0,0,0],"sum_hessian":[9.416204E0,7.5622005E0,1.8540044E0,5.173257E0,2.3889437E0,1.8462723E0,3.3269844E0,1.3672378E0,1.0217059E0],"tree_param":{"num_deleted":"0","num_feature":"11","num_nodes":"9","size_leaf_vector":"1"}},{"base_weights":[-3.5484093E-3,-1.8337594E-1,1.24058574E-1,-4.5369785E-2,1.3536443E-2,4.294887E-2,-9.304244E-2,-4.3448575E-2,2.2380508E-2],"categories":[],"categories_nodes":[],"categories_segments":[],"categories_sizes":[],"default_left":[0,0,0,0,0,0,0,0,0],"id":73,"left_children":[1,3,5,-1,-1,-1,7,-1,-1],"loss_changes":[2.6023093E-1,4.663009E-1,4.8091152E-1,0E0,0E0,0E0,6.066804E-1,0E0,0E0],"parents":[2147483647,0,0,1,1,2,2,6,6],"right_children":[2,4,6,-1,-1,-1,8,-1,-1],"split_conditions":[4.592298E-1,6.628209E-1,5.124221E-1,-4.5369785E-2,1.3536443E-2,4.294887E-2,5.415256E-1,-4.3448575E-2,2.2380508E-2],"split_indices":[8,4,10,0,0,0,5,0,0],"split_type":[0,0,0,0,0,0,0,0,0],"sum_hessian":[9.349021E0,3.6991014E0,5.64992E0,1.7724704E0,1.926631E0,1.9409668E0,3.7089531E0,1.6064852E0,2.102468E0],"tree_param":{"num_deleted":"0","num_feature":"11","num_nodes":"9","size_leaf_vector":"1"}},{"base_weights":[-4.2711156E-3,1.3057522E-1,-1.6490161E-1,-1.4015123E-1,4.366915E-1,-5.040882E-2,1.3432339E-1,-4.9438674E-2,2.4119247E-2,6.3468115E-3,5.9372414E-2,-2.3717923E-2,4.783254E-2],"categories":[],"categories_nodes":[],"categories_segments":[],"categories_sizes":[],"default_left":[0,0,0,0,0,0,0,0,0,0,0,0,0],"id":74,"left_children":[1,3,5,7,9,-1,11,-1,-1,-1,-1,-1,-1],"loss_changes":[2.4380282E-1,5.697673E-1,5.878616E-1,6.614198E-1,1.4535266E-1,0E0,5.6233686E-1,0E0,0E0,0E0,0E0,0E0,0E0],"parents":[2147483647,0,0,1,1,2,2,3,3,4,4,6,6],"right_children":[2,4,6,8,10,-1,12,-1,-1,-1,-1,-1,-1],"split_conditions":[5.784689E-1,2.4481618E-1,5.707111E-1,4.285213E-1,3.495853E-1,-5.040882E-2,8.1933576E-1,-4.9438674E-2,2.4119247E-2,6.3468115E-3,5.9372414E-2,-2.3717923E-2,4.783254E-2],"split_indices":[0,0,3,9,6,0,0,0,0,0,0,0,0],"split_type":[0,0,0,0,0,0,0,0,0,0,0,0,0],"sum_hessian":[9.261601E0,5.1366153E0,4.1249857E0,3.0135884E0,2.123027E0,1.6124952E0,2.5124905E0,1.4086449E0,1.6049435E0,1.0445621E0,1.0784649E0,1.3572582E0,1.1552323E0],"tree_param":{"num_deleted":"0","num_feature":"11","num_nodes":"13","size_leaf_vector":"1"}},{"base_weights":[-2.5443337E-3,-1.86107E-1,1.16680786E-1,1.0853092E-2,-4.7116388E-2,2.9751033E-1,-2.4258405E-2,4.7442738E-2,-1.9335223E-2],"categories":[],"categories_nodes":[],"categories_segments":[],"categories_sizes":[],"default_left":[0,0,0,0,0,0,0,0,0],"id":75,"left_children":[1,3,5,-1,-1,7,-1,-1,-1],"loss_changes":[2.4312533E-1,4.1807753E-1,5.105538E-1,0E0,0E0,5.2053845E-1,0E0,0E0,0E0],"parents":[2147483647,0,0,1,1,2,2,5,5],"right_children":[2,4,6,-1,-1,8,-1,-1,-1],"split_conditions":[2.865386E-1,4.860223E-1,8.140626E-1,1.0853092E-2,-4.7116388E-2,8.089009E-1,-2.4258405E-2,4.7442738E-2,-1.9335223E-2],"split_indices":[6,4,6,0,0,4,0,0,0],"split_type":[0,0,0,0,0,0,0,0,0],"sum_hessian":[9.116856E0,3.3689482E0,5.7479076E0,1.961149E0,1.4077992E0,3.9377851E0,1.8101226E0,2.9191465E0,1.0186386E0],"tree_param":{"num_deleted":"0","num_feature":"11","num_nodes":"9","size_leaf_vector":"1"}},{"base_weights":[-5.5480967E-3,7.340473E-2,-2.9455675E-2,-3.0480472E-2,1.7334035E-1,3.5313662E-2,-1.64084E-2],"categories":[],"categories_nodes":[],"categories_segments":[],"categories_sizes":[],"default_left":[0,0,0,0,0,0,0],"id":76,"left_children":[1,3,-1,-1,5,-1,-1],"loss_changes":[2.5041077E-1,3.807495E-1,0E0,0E0,5.1294816E-1,0E0,0E0],"parents":[2147483647,0,0,1,1,4,4],"right_children":[2,4,-1,-1,6,-1,-1],"split_conditions":[8.2728857E-1,3.069455E-1,-2.9455675E-2,-3.0480472E-2,7.2393996E-1,3.5313662E-2,-1.64084E-2],"split_indices":[5,4,0,0,4,0,0],"split_type":[0,0,0,0,0,0,0],"sum_hessian":[9.026664E0,7.6757703E0,1.3508935E0,1.1758225E0,6.499948E0,4.2100573E0,2.2898905E0],"tree_param":{"num_deleted":"0","num_feature":"11","num_nodes":"7","size_leaf_vector":"1"}},{"base_weights":[-9.143307E-3,-8.563923E-2,2.6906854E-2,1.1727615E-1,-3.02078E-1,4.50114E-2,-9.053809E-3,2.2015009E-4,-6.1620276E-2],"categories":[],"categories_nodes":[],"categories_segments":[],"categories_sizes":[],"default_left":[0,0,0,0,0,0,0,0,0],"id":77,"left_children":[1,3,-1,5,7,-1,-1,-1,-1],"loss_changes":[2.3522037E-1,4.121735E-1,0E0,3.9681733E-1,4.2482927E-1,0E0,0E0,0E0,0E0],"parents":[2147483647,0,0,1,1,3,3,4,4],"right_children":[2,4,-1,6,8,-1,-1,-1,-1],"split_conditions":[8.0330807E-1,5.784689E-1,2.6906854E-2,1.919614E-1,5.3199345E-1,4.50114E-2,-9.053809E-3,2.2015009E-4,-6.1620276E-2],"split_indices":[10,0,0,3,10,0,0,0,0],"split_type":[0,0,0,0,0,0,0,0,0],"sum_hessian":[8.96978E0,7.578271E0,1.3915088E0,4.1477933E0,3.4304774E0,1.1461542E0,3.0016391E0,2.246946E0,1.1835314E0],"tree_param":{"num_deleted":"0","num_feature":"11","num_nodes":"9","size_leaf_vector":"1"}},{"base_weights":[-8.279846E-3,-2.9611705E-2,6.668668E-2,2.858485E-1,-1.4243458E-1,4.157908E-2,-8.520285E-3,-4.5046713E-2,7.1733086E-3],"categories":[],"categories_nodes":[],"categories_segments":[],"categories_sizes":[],"default_left":[0,0,0,0,0,0,0,0,0],"id":78,"left_children":[1,-1,3,5,7,-1,-1,-1,-1],"loss_changes":[2.3314726E-1,0E0,4.377211E-1,2.5539398E-1,3.6877197E-1,0E0,0E0,0E0,0E0],"parents":[2147483647,0,0,2,2,3,3,4,4],"right_children":[2,-1,4,6,8,-1,-1,-1,-1],"split_conditions":[2.8002805E-1,-2.9611705E-2,6.4785016E-1,5.0525534E-1,3.7015474E-1,4.157908E-2,-8.520285E-3,-4.5046713E-2,7.1733086E-3],"split_indices":[2,0,2,7,3,0,0,0,0],"split_type":[0,0,0,0,0,0,0,0,0],"sum_hessian":[8.889641E0,1.2273163E0,7.6623244E0,3.5621946E0,4.1001296E0,2.54897E0,1.0132247E0,1.2290608E0,2.871069E0],"tree_param":{"num_deleted":"0","num_feature":"11","num_nodes":"9","size_leaf_vector":"1"}},{"base_weights":[-1.106026E-2,-1.0077548E-1,2.2560194E-1,7.251905E-2,-4.1377205E-2,-1.1923042E-2,4.5698725E-2,3.484049E-2,-1.253883E-2],"categories":[],"categories_nodes":[],"categories_segments":[],"categories_sizes":[],"default_left":[0,0,0,0,0,0,0,0,0],"id":79,"left_children":[1,3,5,7,-1,-1,-1,-1,-1],"loss_changes":[2.3138967E-1,4.5401382E-1,2.946607E-1,3.648592E-1,0E0,0E0,0E0,0E0,0E0],"parents":[2147483647,0,0,1,1,2,2,3,3],"right_children":[2,4,6,8,-1,-1,-1,-1,-1],"split_conditions":[7.524596E-1,5.0525534E-1,5.981991E-1,3.6186066E-1,-4.1377205E-2,-1.1923042E-2,4.5698725E-2,3.484049E-2,-1.253883E-2],"split_indices":[7,7,8,1,0,0,0,0,0],"split_type":[0,0,0,0,0,0,0,0,0],"sum_hessian":[8.827269E0,6.817161E0,2.0101073E0,4.8823133E0,1.9348476E0,1.0018162E0,1.0082911E0,1.7217388E0,3.1605744E0],"tree_param":{"num_deleted":"0","num_feature":"11","num_nodes":"9","size_leaf_vector":"1"}},{"base_weights":[-8.535591E-3,-8.438277E-2,2.6392465E-2,1.1146422E-1,-2.9478478E-1,-1.767761E-2,3.416729E-2,-5.611675E-2,3.9283107E-3],"categories":[],"categories_nodes":[],"categories_segments":[],"categories_sizes":[],"default_left":[0,0,0,0,0,0,0,0,0],"id":80,"left_children":[1,3,-1,5,7,-1,-1,-1,-1],"loss_changes":[2.2371507E-1,3.7829152E-1,0E0,3.9664114E-1,4.060967E-1,0E0,0E0,0E0,0E0],"parents":[2147483647,0,0,1,1,3,3,4,4],"right_children":[2,4,-1,6,8,-1,-1,-1,-1],"split_conditions":[8.0330807E-1,5.784689E-1,2.6392465E-2,4.5313424E-1,5.933605E-1,-1.767761E-2,3.416729E-2,-5.611675E-2,3.9283107E-3],"split_indices":[10,0,0,1,3,0,0,0,0],"split_type":[0,0,0,0,0,0,0,0,0],"sum_hessian":[8.747933E0,7.382965E0,1.3649684E0,4.0672803E0,3.315685E0,1.9090707E0,2.1582096E0,1.466506E0,1.849179E0],"tree_param":{"num_deleted":"0","num_feature":"11","num_nodes":"9","size_leaf_vector":"1"}},{"base_weights":[-8.82746E-3,-1.8557966E-1,1.0814439E-1,8.755731E-3,-4.437197E-2,2.785049E-1,-2.2834962E-2,-5.270539E-3,5.1097672E-2],"categories":[],"categories_nodes":[],"categories_segments":[],"categories_sizes":[],"default_left":[0,0,0,0,0,0,0,0,0],"id":81,"left_children":[1,3,5,-1,-1,7,-1,-1,-1],"loss_changes":[2.1999374E-1,3.3632773E-1,4.333887E-1,0E0,0E0,3.9136624E-1,0E0,0E0,0E0],"parents":[2147483647,0,0,1,1,2,2,5,5],"right_children":[2,4,6,-1,-1,8,-1,-1,-1],"split_conditions":[2.865386E-1,4.860223E-1,8.140626E-1,8.755731E-3,-4.437197E-2,3.9261413E-1,-2.2834962E-2,-5.270539E-3,5.1097672E-2],"split_indices":[6,4,6,0,0,3,0,0,0],"split_type":[0,0,0,0,0,0,0,0,0],"sum_hessian":[8.669846E0,3.219076E0,5.4507694E0,1.8851843E0,1.3338916E0,3.7331033E0,1.7176659E0,1.8585081E0,1.8745953E0],"tree_param":{"num_deleted":"0","num_feature":"11","num_nodes":"9","size_leaf_vector":"1"}},{"base_weights":[-9.293622E-3,-2.9142886E-2,6.548952E-2,2.739249E-1,-1.3544689E-1,-2.2481051E-3,4.430364E-2,-3.256763E-2,1.7110942E-2],"categories":[],"categories_nodes":[],"categories_segments":[],"categories_sizes":[],"default_left":[0,0,0,0,0,0,0,0,0],"id":82,"left_children":[1,-1,3,5,7,-1,-1,-1,-1],"loss_changes":[2.2119978E-1,0E0,3.8844213E-1,2.329393E-1,3.4382755E-1,0E0,0E0,0E0,0E0],"parents":[2147483647,0,0,2,2,3,3,4,4],"right_children":[2,-1,4,6,8,-1,-1,-1,-1],"split_conditions":[2.8002805E-1,-2.9142886E-2,6.4785016E-1,2.732408E-1,8.6466235E-1,-2.2481051E-3,4.430364E-2,-3.256763E-2,1.7110942E-2],"split_indices":[2,0,2,9,2,0,0,0,0],"split_type":[0,0,0,0,0,0,0,0,0],"sum_hessian":[8.579346E0,1.1905937E0,7.3887525E0,3.448408E0,3.9403443E0,1.5677091E0,1.8806989E0,2.3930182E0,1.5473261E0],"tree_param":{"num_deleted":"0","num_feature":"11","num_nodes":"9","size_leaf_vector":"1"}},{"base_weights":[-8.684192E-3,-9.5674075E-2,2.1848278E-2,6.629041E-2,-3.8936984E-2,3.3369925E-2,-1.249083E-2],"categories":[],"categories_nodes":[],"categories_segments":[],"categories_sizes":[],"default_left":[0,0,0,0,0,0,0],"id":83,"left_children":[1,3,-1,5,-1,-1,-1],"loss_changes":[2.091762E-1,3.866037E-1,0E0,3.3532402E-1,0E0,0E0,0E0],"parents":[2147483647,0,0,1,1,3,3],"right_children":[2,4,-1,6,-1,-1,-1],"split_conditions":[7.524596E-1,5.0525534E-1,2.1848278E-2,3.6186066E-1,-3.8936984E-2,3.3369925E-2,-1.249083E-2],"split_indices":[7,7,0,1,0,0,0],"split_type":[0,0,0,0,0,0,0],"sum_hessian":[8.527396E0,6.584723E0,1.9426739E0,4.74325E0,1.8414727E0,1.6667906E0,3.0764594E0],"tree_param":{"num_deleted":"0","num_feature":"11","num_nodes":"7","size_leaf_vector":"1"}},{"base_weights":[-7.5060083E-3,-2.8124103E-2,6.499348E-2,2.590797E-1,-1.2218063E-1,-1.8303702E-3,4.1662972E-2,-4.2789277E-2,8.438427E-3],"categories":[],"categories_nodes":[],"categories_segments":[],"categories_sizes":[],"default_left":[0,0,0,0,0,0,0,0,0],"id":84,"left_children":[1,-1,3,5,7,-1,-1,-1,-1],"loss_changes":[2.0631778E-1,0E0,3.3329728E-1,1.9977653E-1,3.4594795E-1,0E0,0E0,0E0,0E0],"parents":[2147483647,0,0,2,2,3,3,4,4],"right_children":[2,-1,4,6,8,-1,-1,-1,-1],"split_conditions":[2.8002805E-1,-2.8124103E-2,6.4785016E-1,2.732408E-1,3.7015474E-1,-1.8303702E-3,4.1662972E-2,-4.2789277E-2,8.438427E-3],"split_indices":[2,0,2,9,3,0,0,0,0],"split_type":[0,0,0,0,0,0,0,0,0],"sum_hessian":[8.475072E0,1.1717399E0,7.3033323E0,3.3968632E0,3.9064693E0,1.5506334E0,1.8462297E0,1.143154E0,2.7633152E0],"tree_param":{"num_deleted":"0","num_feature":"11","num_nodes":"9","size_leaf_vector":"1"}},{"base_weights":[-9.243417E-3,-1.8100828E-1,1.046518E-1,7.3018013E-3,-4.191942E-2,2.7332887E-1,-2.2258667E-2,-4.2904275E-3,4.92305E-2],"categories":[],"categories_nodes":[],"categories_segments":[],"categories_sizes":[],"default_left":[0,0,0,0,0,0,0,0,0],"id":85,"left_children":[1,3,5,-1,-1,7,-1,-1,-1],"loss_changes":[2.0317826E-1,2.799623E-1,4.0837893E-1,0E0,0E0,3.3990622E-1,0E0,0E0,0E0],"parents":[2147483647,0,0,1,1,2,2,5,5],"right_children":[2,4,6,-1,-1,8,-1,-1,-1],"split_conditions":[2.865386E-1,4.860223E-1,8.140626E-1,7.3018013E-3,-4.191942E-2,3.9261413E-1,-2.2258667E-2,-4.2904275E-3,4.92305E-2],"split_indices":[6,4,6,0,0,3,0,0,0],"split_type":[0,0,0,0,0,0,0,0,0],"sum_hessian":[8.417449E0,3.1211715E0,5.2962775E0,1.8459256E0,1.275246E0,3.6035476E0,1.6927297E0,1.8033371E0,1.8002104E0],"tree_param":{"num_deleted":"0","num_feature":"11","num_nodes":"9","size_leaf_vector":"1"}},{"base_weights":[-9.628061E-3,-1.4864755E-1,1.3462873E-1,-3.1486288E-1,2.52121E-2,3.8620502E-1,-3.622779E-2,9.541371E-3,-4.900564E-2,-5.0803656E-3,5.7086434E-2],"categories":[],"categories_nodes":[],"categories_segments":[],"categories_sizes":[],"default_left":[0,0,0,0,0,0,0,0,0,0,0],"id":86,"left_children":[1,3,5,7,-1,9,-1,-1,-1,-1,-1],"loss_changes":[2.0720817E-1,4.2768902E-1,7.781686E-1,3.4437212E-1,0E0,3.4159023E-1,0E0,0E0,0E0,0E0,0E0],"parents":[2147483647,0,0,1,1,2,2,3,3,5,5],"right_children":[2,4,6,8,-1,10,-1,-1,-1,-1,-1],"split_conditions":[5.58293E-1,7.7507085E-1,5.704129E-1,1.8649589E-1,2.52121E-2,2.4910027E-1,-3.622779E-2,9.541371E-3,-4.900564E-2,-5.0803656E-3,5.7086434E-2],"split_indices":[8,1,1,1,0,1,0,0,0,0,0],"split_type":[0,0,0,0,0,0,0,0,0,0,0],"sum_hessian":[8.334358E0,4.2287235E0,4.105635E0,3.1405566E0,1.0881666E0,2.8735712E0,1.2320639E0,1.0760325E0,2.0645242E0,1.0688782E0,1.8046931E0],"tree_param":{"num_deleted":"0","num_feature":"11","num_nodes":"11","size_leaf_vector":"1"}},{"base_weights":[-8.612668E-3,-9.498158E-2,2.1510584E-2,5.5693153E-2,-3.6921907E-2,-2.3595095E-2,2.2184175E-2],"categories":[],"categories_nodes":[],"categories_segments":[],"categories_sizes":[],"default_left":[0,0,0,0,0,0,0],"id":87,"left_children":[1,3,-1,5,-1,-1,-1],"loss_changes":[1.9854286E-1,3.2402784E-1,0E0,3.2412648E-1,0E0,0E0,0E0],"parents":[2147483647,0,0,1,1,3,3],"right_children":[2,4,-1,6,-1,-1,-1],"split_conditions":[7.524596E-1,5.0525534E-1,2.1510584E-2,1.6690356E-1,-3.6921907E-2,-2.3595095E-2,2.2184175E-2],"split_indices":[7,7,0,0,0,0,0],"split_type":[0,0,0,0,0,0,0],"sum_hessian":[8.217926E0,6.3441434E0,1.8737825E0,4.6088257E0,1.7353178E0,1.5202242E0,3.0886014E0],"tree_param":{"num_deleted":"0","num_feature":"11","num_nodes":"7","size_leaf_vector":"1"}},{"base_weights":[-9.682453E-3,-2.7794749E-2,6.292173E-2,2.2742428E-1,-1.4082177E-1,-2.579073E-3,4.6909112E-2,-4.6458524E-2,1.7274378E-2],"categories":[],"categories_nodes":[],"categories_segments":[],"categories_sizes":[],"default_left":[0,0,0,0,0,0,0,0,0],"id":88,"left_children":[1,-1,3,5,7,-1,-1,-1,-1],"loss_changes":[1.9607122E-1,0E0,3.0120528E-1,3.074168E-1,5.0718224E-1,0E0,0E0,0E0,0E0],"parents":[2147483647,0,0,2,2,3,3,4,4],"right_children":[2,-1,4,6,8,-1,-1,-1,-1],"split_conditions":[2.8002805E-1,-2.7794749E-2,5.370791E-1,2.1228276E-1,5.933605E-1,-2.579073E-3,4.6909112E-2,-4.6458524E-2,1.7274378E-2],"split_indices":[2,0,0,0,3,0,0,0,0],"split_type":[0,0,0,0,0,0,0,0,0],"sum_hessian":[8.168802E0,1.1375211E0,7.031281E0,3.8259666E0,3.2053144E0,2.304561E0,1.5214057E0,1.3400558E0,1.8652586E0],"tree_param":{"num_deleted":"0","num_feature":"11","num_nodes":"9","size_leaf_vector":"1"}},{"base_weights":[-1.020149E-2,-1.415169E-1,1.2694854E-1,-3.0282012E-1,2.4299785E-2,3.6817878E-1,-3.453467E-2,1.0604843E-3,-5.5487614E-2,-4.154644E-3,5.4071553E-2],"categories":[],"categories_nodes":[],"categories_segments":[],"categories_sizes":[],"default_left":[0,0,0,0,0,0,0,0,0,0,0],"id":89,"left_children":[1,3,5,7,-1,9,-1,-1,-1,-1,-1],"loss_changes":[1.816897E-1,3.9096177E-1,6.9381726E-1,3.2583937E-1,0E0,2.8941512E-1,0E0,0E0,0E0,0E0,0E0],"parents":[2147483647,0,0,1,1,2,2,3,3,5,5],"right_children":[2,4,6,8,-1,10,-1,-1,-1,-1,-1],"split_conditions":[5.58293E-1,7.7507085E-1,5.704129E-1,4.5374915E-1,2.4299785E-2,2.4910027E-1,-3.453467E-2,1.0604843E-3,-5.5487614E-2,-4.154644E-3,5.4071553E-2],"split_indices":[8,1,1,7,0,1,0,0,0,0,0],"split_type":[0,0,0,0,0,0,0,0,0,0,0],"sum_hessian":[8.090792E0,4.117049E0,3.9737422E0,3.0500293E0,1.0670199E0,2.776209E0,1.1975331E0,1.7864959E0,1.2635334E0,1.0476185E0,1.7285906E0],"tree_param":{"num_deleted":"0","num_feature":"11","num_nodes":"11","size_leaf_vector":"1"}},{"base_weights":[-1.0974575E-2,6.2916405E-2,-2.6880918E-2,-9.148804E-2,2.59208E-1,2.2637073E-2,-2.6776334E-2,4.4296734E-2,-1.1413554E-2],"categories":[],"categories_nodes":[],"categories_segments":[],"categories_sizes":[],"default_left":[0,0,0,0,0,0,0,0,0],"id":90,"left_children":[1,3,-1,5,7,-1,-1,-1,-1],"loss_changes":[1.8799692E-1,2.598188E-1,0E0,3.4633613E-1,3.037598E-1,0E0,0E0,0E0,0E0],"parents":[2147483647,0,0,1,1,3,3,4,4],"right_children":[2,4,-1,6,8,-1,-1,-1,-1],"split_conditions":[8.2728857E-1,5.933605E-1,-2.6880918E-2,2.4013585E-1,6.590472E-1,2.2637073E-2,-2.6776334E-2,4.4296734E-2,-1.1413554E-2],"split_indices":[5,3,0,3,9,0,0,0,0],"split_type":[0,0,0,0,0,0,0,0,0],"sum_hessian":[7.980033E0,6.7900906E0,1.1899422E0,4.099394E0,2.6906965E0,1.3610202E0,2.7383738E0,1.6782006E0,1.0124959E0],"tree_param":{"num_deleted":"0","num_feature":"11","num_nodes":"9","size_leaf_vector":"1"}},{"base_weights":[-9.708266E-3,-8.0332346E-2,2.5794754E-2,-3.612022E-1,1.07182644E-1,-4.416039E-4,-5.3782918E-2,-1.8767133E-2,2.447033E-2],"categories":[],"categories_nodes":[],"categories_segments":[],"categories_sizes":[],"default_left":[0,0,0,0,0,0,0,0,0],"id":91,"left_children":[1,3,-1,5,7,-1,-1,-1,-1],"loss_changes":[1.8952626E-1,4.5100662E-1,0E0,2.0954323E-1,2.675382E-1,0E0,0E0,0E0,0E0],"parents":[2147483647,0,0,1,1,3,3,4,4],"right_children":[2,4,-1,6,8,-1,-1,-1,-1],"split_conditions":[8.840193E-1,2.865386E-1,2.5794754E-2,3.6115417E-1,1.7020394E-1,-4.416039E-4,-5.3782918E-2,-1.8767133E-2,2.447033E-2],"split_indices":[9,6,0,5,0,0,0,0,0],"split_type":[0,0,0,0,0,0,0,0,0],"sum_hessian":[7.9300747E0,6.8282332E0,1.1018413E0,2.3628194E0,4.4654136E0,1.1217958E0,1.2410237E0,1.304276E0,3.1611376E0],"tree_param":{"num_deleted":"0","num_feature":"11","num_nodes":"9","size_leaf_vector":"1"}},{"base_weights":[-1.1463307E-2,1.2039346E-1,-1.6161248E-1,-1.3978688E-1,4.3639623E-2,-4.0956624E-2,8.004982E-2,-4.5261264E-2,2.0313233E-2,-2.1086091E-2,3.456534E-2],"categories":[],"categories_nodes":[],"categories_segments":[],"categories_sizes":[],"default_left":[0,0,0,0,0,0,0,0,0,0,0],"id":92,"left_children":[1,3,5,7,-1,-1,9,-1,-1,-1,-1],"loss_changes":[1.9506936E-1,4.9641293E-1,3.068824E-1,4.8476043E-1,0E0,0E0,3.1651068E-1,0E0,0E0,0E0,0E0],"parents":[2147483647,0,0,1,1,2,2,3,3,6,6],"right_children":[2,4,6,8,-1,-1,10,-1,-1,-1,-1],"split_conditions":[5.370791E-1,2.4481618E-1,5.707111E-1,4.285213E-1,4.3639623E-2,-4.0956624E-2,7.8745353E-1,-4.5261264E-2,2.0313233E-2,-2.1086091E-2,3.456534E-2],"split_indices":[0,0,3,9,0,0,0,0,0,0,0],"split_type":[0,0,0,0,0,0,0,0,0,0,0],"sum_hessian":[7.8701196E0,4.295823E0,3.5742965E0,2.6618412E0,1.6339822E0,1.4212542E0,2.1530423E0,1.2247185E0,1.4371226E0,1.125934E0,1.0271083E0],"tree_param":{"num_deleted":"0","num_feature":"11","num_nodes":"11","size_leaf_vector":"1"}},{"base_weights":[-1.1492536E-2,-1.7491086E-1,9.821026E-2,7.866999E-3,-4.1140545E-2,2.6595086E-1,-2.2337845E-2,-4.6680137E-3,4.8685294E-2],"categories":[],"categories_nodes":[],"categories_segments":[],"categories_sizes":[],"default_left":[0,0,0,0,0,0,0,0,0],"id":93,"left_children":[1,3,5,-1,-1,7,-1,-1,-1],"loss_changes":[1.7431808E-1,2.650688E-1,3.7686688E-1,0E0,0E0,3.2135653E-1,0E0,0E0,0E0],"parents":[2147483647,0,0,1,1,2,2,5,5],"right_children":[2,4,6,-1,-1,8,-1,-1,-1],"split_conditions":[2.865386E-1,4.860223E-1,8.140626E-1,7.866999E-3,-4.1140545E-2,4.0422884E-1,-2.2337845E-2,-4.6680137E-3,4.8685294E-2],"split_indices":[6,4,6,0,0,9,0,0,0],"split_type":[0,0,0,0,0,0,0,0,0],"sum_hessian":[7.7653327E0,2.8802996E0,4.885033E0,1.711981E0,1.1683185E0,3.324161E0,1.5608723E0,1.7028673E0,1.6212937E0],"tree_param":{"num_deleted":"0","num_feature":"11","num_nodes":"9","size_leaf_vector":"1"}},{"base_weights":[-1.1736567E-2,-8.35784E-2,2.3421519E-2,1.1441662E-1,-3.0068874E-1,4.2514563E-2,-8.9540435E-3,-5.1132746E-2,-2.8228294E-4],"categories":[],"categories_nodes":[],"categories_segments":[],"categories_sizes":[],"default_left":[0,0,0,0,0,0,0,0,0],"id":94,"left_children":[1,3,-1,5,7,-1,-1,-1,-1],"loss_changes":[1.7324057E-1,3.554115E-1,0E0,3.3150226E-1,2.3932877E-1,0E0,0E0,0E0,0E0],"parents":[2147483647,0,0,1,1,3,3,4,4],"right_children":[2,4,-1,6,8,-1,-1,-1,-1],"split_conditions":[8.0330807E-1,5.784689E-1,2.3421519E-2,1.919614E-1,5.933605E-1,4.2514563E-2,-8.9540435E-3,-5.1132746E-2,-2.8228294E-4],"split_indices":[10,0,0,3,3,0,0,0,0],"split_type":[0,0,0,0,0,0,0,0,0],"sum_hessian":[7.6965766E0,6.4675937E0,1.2289827E0,3.630103E0,2.8374908E0,1.0087637E0,2.6213396E0,1.2423295E0,1.5951612E0],"tree_param":{"num_deleted":"0","num_feature":"11","num_nodes":"9","size_leaf_vector":"1"}},{"base_weights":[-1.0075094E-2,-2.6256347E-2,6.023538E-2,2.5193697E-1,-1.2572964E-1,-1.6529963E-3,3.960829E-2,-3.0777548E-2,1.6824543E-2],"categories":[],"categories_nodes":[],"categories_segments":[],"categories_sizes":[],"default_left":[0,0,0,0,0,0,0,0,0],"id":95,"left_children":[1,-1,3,5,7,-1,-1,-1,-1],"loss_changes":[1.6905734E-1,0E0,3.0137667E-1,1.6358909E-1,2.929926E-1,0E0,0E0,0E0,0E0],"parents":[2147483647,0,0,2,2,3,3,4,4],"right_children":[2,-1,4,6,8,-1,-1,-1,-1],"split_conditions":[2.8002805E-1,-2.6256347E-2,6.4785016E-1,2.732408E-1,8.6466235E-1,-1.6529963E-3,3.960829E-2,-3.0777548E-2,1.6824543E-2],"split_indices":[2,0,2,9,2,0,0,0,0],"split_type":[0,0,0,0,0,0,0,0,0],"sum_hessian":[7.6320834E0,1.0668019E0,6.5652814E0,3.058096E0,3.5071855E0,1.3776302E0,1.6804658E0,2.1369328E0,1.3702526E0],"tree_param":{"num_deleted":"0","num_feature":"11","num_nodes":"9","size_leaf_vector":"1"}},{"base_weights":[-9.384544E-3,-9.130968E-2,1.9780207E-2,5.4806303E-2,-3.5336766E-2,3.0733228E-2,-1.2948655E-2],"categories":[],"categories_nodes":[],"categories_segments":[],"categories_sizes":[],"default_left":[0,0,0,0,0,0,0],"id":96,"left_children":[1,3,-1,5,-1,-1,-1],"loss_changes":[1.6380507E-1,2.8117895E-1,0E0,2.8438196E-1,0E0,0E0,0E0],"parents":[2147483647,0,0,1,1,3,3],"right_children":[2,4,-1,6,-1,-1,-1],"split_conditions":[7.524596E-1,5.0525534E-1,1.9780207E-2,3.6186066E-1,-3.5336766E-2,3.0733228E-2,-1.2948655E-2],"split_indices":[7,7,0,1,0,0,0],"split_type":[0,0,0,0,0,0,0],"sum_hessian":[7.5864024E0,5.8374586E0,1.7489437E0,4.255549E0,1.5819098E0,1.5137347E0,2.7418144E0],"tree_param":{"num_deleted":"0","num_feature":"11","num_nodes":"7","size_leaf_vector":"1"}},{"base_weights":[-8.262746E-3,-1.6653636E-1,9.76537E-2,7.438062E-3,-3.9096475E-2,2.5696468E-1,-2.0907525E-2,-4.170126E-3,4.679629E-2],"categories":[],"categories_nodes":[],"categories_segments":[],"categories_sizes":[],"default_left":[0,0,0,0,0,0,0,0,0],"id":97,"left_children":[1,3,5,-1,-1,7,-1,-1,-1],"loss_changes":[1.5947178E-1,2.3424414E-1,3.3461463E-1,0E0,0E0,2.861996E-1,0E0,0E0,0E0],"parents":[2147483647,0,0,1,1,2,2,5,5],"right_children":[2,4,6,-1,-1,8,-1,-1,-1],"split_conditions":[2.865386E-1,4.860223E-1,8.140626E-1,7.438062E-3,-3.9096475E-2,4.0422884E-1,-2.0907525E-2,-4.170126E-3,4.679629E-2],"split_indices":[6,4,6,0,0,9,0,0,0],"split_type":[0,0,0,0,0,0,0,0,0],"sum_hessian":[7.5427566E0,2.794511E0,4.7482452E0,1.6701903E0,1.1243207E0,3.2318873E0,1.5163581E0,1.6701573E0,1.56173E0],"tree_param":{"num_deleted":"0","num_feature":"11","num_nodes":"9","size_leaf_vector":"1"}},{"base_weights":[-8.641295E-3,6.162501E-2,-2.4926526E-2,-8.506193E-2,2.4345191E-1,2.0055424E-2,-2.419827E-2,4.1744735E-2,-6.606617E-3],"categories":[],"categories_nodes":[],"categories_segments":[],"categories_sizes":[],"default_left":[0,0,0,0,0,0,0,0,0],"id":98,"left_children":[1,3,-1,5,7,-1,-1,-1,-1],"loss_changes":[1.5873179E-1,2.1714076E-1,0E0,2.6444155E-1,2.1862635E-1,0E0,0E0,0E0,0E0],"parents":[2147483647,0,0,1,1,3,3,4,4],"right_children":[2,4,-1,6,8,-1,-1,-1,-1],"split_conditions":[8.2728857E-1,5.933605E-1,-2.4926526E-2,2.4013585E-1,7.312871E-1,2.0055424E-2,-2.419827E-2,4.1744735E-2,-6.606617E-3],"split_indices":[5,3,0,3,8,0,0,0,0],"split_type":[0,0,0,0,0,0,0,0,0],"sum_hessian":[7.4795866E0,6.3648396E0,1.1147469E0,3.8173854E0,2.547454E0,1.2550218E0,2.5623636E0,1.4075174E0,1.1399366E0],"tree_param":{"num_deleted":"0","num_feature":"11","num_nodes":"9","size_leaf_vector":"1"}},{"base_weights":[-7.084616E-3,-7.724161E-2,2.2783566E-2,1.11474775E-1,-2.8756842E-1,-1.0522547E-2,3.5982903E-2,4.8916196E-3,-4.516706E-2],"categories":[],"categories_nodes":[],"categories_segments":[],"categories_sizes":[],"default_left":[0,0,0,0,0,0,0,0,0],"id":99,"left_children":[1,3,-1,5,7,-1,-1,-1,-1],"loss_changes":[1.5668207E-1,3.196279E-1,0E0,2.821638E-1,2.2671473E-1,0E0,0E0,0E0,0E0],"parents":[2147483647,0,0,1,1,3,3,4,4],"right_children":[2,4,-1,6,8,-1,-1,-1,-1],"split_conditions":[8.0330807E-1,5.784689E-1,2.2783566E-2,2.4481618E-1,4.07802E-1,-1.0522547E-2,3.5982903E-2,4.8916196E-3,-4.516706E-2],"split_indices":[10,0,0,0,9,0,0,0,0],"split_type":[0,0,0,0,0,0,0,0,0],"sum_hessian":[7.4388785E0,6.2450476E0,1.193831E0,3.5393488E0,2.705699E0,2.1978955E0,1.3414533E0,1.117083E0,1.5886159E0],"tree_param":{"num_deleted":"0","num_feature":"11","num_nodes":"9","size_leaf_vector":"1"}}]},"name":"gbtree"},"learner_model_param":{"base_score":"4E-1","boost_from_average":"1","num_class":"0","num_feature":"11","num_target":"1"},"objective":{"name":"binary:logistic","reg_loss_param":{"scale_pos_weight":"1"}}},"version":[3,0,3]}